{"learner": {"attributes": {}, "feature_names": [], "feature_types": [], "gradient_booster": {"model": {"gbtree_model_param": {"num_parallel_tree": "1", "num_trees": "41"}, "iteration_indptr": [0, 1, 2, 3, 4, 5, 6, 7, 8, 9, 10, 11, 12, 13, 14, 15, 16, 17, 18, 19, 20, 21, 22, 23, 24, 25, 26, 27, 28, 29, 30, 31, 32, 33, 34, 35, 36, 37, 38, 39, 40, 41], "tree_info": [0, 0, 0, 0, 0, 0, 0, 0, 0, 0, 0, 0, 0, 0, 0, 0, 0, 0, 0, 0, 0, 0, 0, 0, 0, 0, 0, 0, 0, 0, 0, 0, 0, 0, 0, 0, 0, 0, 0, 0, 0], "trees": [{"base_weights": [-1.1158384, -0.112054944, 0.123635374], "categories": [], "categories_nodes": [], "categories_segments": [], "categories_sizes": [], "default_left": [0, 0, 0], "id": 0, "left_children": [1, -1, -1], "loss_changes": [15.423218, 0.0, 0.0], "parents": [2147483647, 0, 0], "right_children": [2, -1, -1], "split_conditions": [7298.0, -0.112054944, 0.123635374], "split_indices": [10, 0, 0], "split_type": [0, 0, 0], "sum_hessian": [1265.8356, 1263.828, 2.0075855], "tree_param": {"num_deleted": "0", "num_feature": "14", "num_nodes": "3", "size_leaf_vector": "1"}}, {"base_weights": [-1.0995919, -0.11046594, 1.0801747, 0.21597008, -0.058933295], "categories": [], "categories_nodes": [], "categories_segments": [], "categories_sizes": [], "default_left": [0, 0, 0, 0, 0], "id": 1, "left_children": [1, -1, 3, -1, -1], "loss_changes": [14.032959, 0.0, 7.0430503, 0.0, 0.0], "parents": [2147483647, 0, 0, 2, 2], "right_children": [2, -1, 4, -1, -1], "split_conditions": [7298.0, -0.11046594, 2.0, 0.21597008, -0.058933295], "split_indices": [10, 0, 7, 0, 0], "split_type": [0, 0, 0, 0, 0], "sum_hessian": [1161.3809, 1159.1792, 2.201654, 1.1587653, 1.0428888], "tree_param": {"num_deleted": "0", "num_feature": "14", "num_nodes": "5", "size_leaf_vector": "1"}}, {"base_weights": [-1.1327877], "categories": [], "categories_nodes": [], "categories_segments": [], "categories_sizes": [], "default_left": [0], "id": 2, "left_children": [-1], "loss_changes": [0.0], "parents": [2147483647], "right_children": [-1], "split_conditions": [-0.11327877], "split_indices": [0], "split_type": [0], "sum_hessian": [444.64783], "tree_param": {"num_deleted": "0", "num_feature": "14", "num_nodes": "1", "size_leaf_vector": "1"}}, {"base_weights": [-0.8191863, -0.89124155, 0.53391653, -0.501248, -1.068332, -0.75312346, 0.5067369, -1.1055487, -0.36080313, -0.7898074, 0.6093767, 0.16085665, 1.3684874, -1.1088529, -0.016962891, -0.7900945, 0.091858074, -0.91143847, -0.3290091, 0.18248157, -0.067973614, -0.18357657, 0.9252166, 0.23435695, 2.5304153, -0.11409547, -0.9410639, -0.09606304, -0.30956572, -0.3850661, 0.6353926, 0.0147067625, -0.9310403, 0.2589858, -0.6911205, -0.65905523, 0.1283721, -0.5172235, 1.8121799, -0.30956572, 0.09738714, 0.30434465, 0.07467677, 0.04803441, -0.9946735, 0.037147887, -0.07223992, 0.037147887, -0.6580039, 0.112951994, -0.026633427, 0.00862088, -0.95101756, -0.3426534, 1.0185877, -0.8928559, 0.0059594642, -0.01094134, -0.088997446, 0.765801, -0.20472302, -0.011296674, -0.06551156, 0.24081163, 0.021418221, 0.028856937, -0.07020619, -1.0995896, -0.65617937, -0.08018649, -0.011296674, -0.1016776, -0.067905, -0.06713732, 0.027928203, 0.027928203, 0.14221792, -0.025190795, -0.10354431, 0.120496586, -0.08018649, 0.0147067625, 0.108348005, -0.08472491, 0.03376619, -0.04122957, -0.112526834, -0.08920886, -0.029726451], "categories": [], "categories_nodes": [], "categories_segments": [], "categories_sizes": [], "default_left": [0, 0, 0, 0, 0, 0, 0, 0, 0, 0, 0, 0, 0, 0, 0, 0, 0, 0, 0, 0, 0, 0, 0, 0, 0, 0, 0, 0, 0, 0, 0, 0, 0, 0, 0, 0, 0, 0, 0, 0, 0, 0, 0, 0, 0, 0, 0, 0, 0, 0, 0, 0, 0, 0, 0, 0, 0, 0, 0, 0, 0, 0, 0, 0, 0, 0, 0, 0, 0, 0, 0, 0, 0, 0, 0, 0, 0, 0, 0, 0, 0, 0, 0, 0, 0, 0, 0, 0, 0], "id": 3, "left_children": [1, 3, -1, 5, 7, 9, 11, 13, 15, 17, 19, 21, 23, 25, -1, 27, 29, 31, 33, -1, -1, 35, 37, 39, 41, -1, 43, -1, 45, 47, 49, -1, 51, 53, 55, 57, 59, 61, 63, 65, -1, -1, -1, -1, 67, -1, -1, -1, 69, -1, -1, -1, 71, 73, 75, 77, 79, -1, -1, 81, 83, -1, -1, -1, -1, -1, -1, 85, 87, -1, -1, -1, -1, -1, -1, -1, -1, -1, -1, -1, -1, -1, -1, -1, -1, -1, -1, -1, -1], "loss_changes": [200.97061, 29.708984, 0.0, 35.58011, 7.5081177, 6.045452, 8.219466, 0.6925659, 3.2770202, 5.800354, 6.6979547, 5.787613, 9.918264, 0.45388794, 0.0, 0.4047265, 2.557599, 1.9118958, 5.351765, 0.0, 0.0, 2.390208, 9.629566, 2.3684268, 1.2391949, 0.0, 4.3834457, 0.0, 1.3141683, 1.3543389, 2.3269982, 0.0, 1.7916031, 4.9130106, 2.1579895, 0.7049141, 2.3274126, 0.11356735, 3.702115, 1.0758423, 0.0, 0.0, 0.0, 0.0, 1.0441132, 0.0, 0.0, 0.0, 0.2474314, 0.0, 0.0, 0.0, 0.78661346, 1.4797992, 0.99493027, 0.8247633, 5.2562237, 0.0, 0.0, 0.5717864, 2.9010403, 0.0, 0.0, 0.0, 0.0, 0.0, 0.0, 0.17977905, 0.9408355, 0.0, 0.0, 0.0, 0.0, 0.0, 0.0, 0.0, 0.0, 0.0, 0.0, 0.0, 0.0, 0.0, 0.0, 0.0, 0.0, 0.0, 0.0, 0.0, 0.0], "parents": [2147483647, 0, 0, 1, 1, 3, 3, 4, 4, 5, 5, 6, 6, 7, 7, 8, 8, 9, 9, 10, 10, 11, 11, 12, 12, 13, 13, 15, 15, 16, 16, 17, 17, 18, 18, 21, 21, 22, 22, 23, 23, 24, 24, 26, 26, 28, 28, 29, 29, 30, 30, 32, 32, 33, 33, 34, 34, 35, 35, 36, 36, 37, 37, 38, 38, 39, 39, 44, 44, 48, 48, 52, 52, 53, 53, 54, 54, 55, 55, 56, 56, 59, 59, 60, 60, 67, 67, 68, 68], "right_children": [2, 4, -1, 6, 8, 10, 12, 14, 16, 18, 20, 22, 24, 26, -1, 28, 30, 32, 34, -1, -1, 36, 38, 40, 42, -1, 44, -1, 46, 48, 50, -1, 52, 54, 56, 58, 60, 62, 64, 66, -1, -1, -1, -1, 68, -1, -1, -1, 70, -1, -1, -1, 72, 74, 76, 78, 80, -1, -1, 82, 84, -1, -1, -1, -1, -1, -1, 86, 88, -1, -1, -1, -1, -1, -1, -1, -1, -1, -1, -1, -1, -1, -1, -1, -1, -1, -1, -1, -1], "split_conditions": [7298.0, 1.0, 0.53391653, 13.0, 5.0, 1741.0, 223392.0, 2002.0, 10.0, 49.0, 2042.0, 11.0, 42.0, 13.0, -0.016962891, 213019.0, 168894.0, 30246.0, 51.0, 0.18248157, -0.067973614, 116367.0, 6.0, 343161.0, 304602.0, -0.11409547, 33811.0, -0.09606304, 5.0, 4.0, 238360.0, 0.0147067625, 3.0, 10.0, 217961.0, 38.0, 145493.0, 44.0, 156003.0, 41.0, 0.09738714, 0.30434465, 0.07467677, 0.04803441, 44.0, 0.037147887, -0.07223992, 0.037147887, 13.0, 0.112951994, -0.026633427, 0.00862088, 14.0, 42.0, 161075.0, 4.0, 239723.0, -0.01094134, -0.088997446, 134113.0, 178623.0, -0.011296674, -0.06551156, 0.24081163, 0.021418221, 0.028856937, -0.07020619, 2.0, 37.0, -0.08018649, -0.011296674, -0.1016776, -0.067905, -0.06713732, 0.027928203, 0.027928203, 0.14221792, -0.025190795, -0.10354431, 0.120496586, -0.08018649, 0.0147067625, 0.108348005, -0.08472491, 0.03376619, -0.04122957, -0.112526834, -0.08920886, -0.029726451], "split_indices": [10, 7, 0, 4, 7, 11, 2, 11, 4, 12, 11, 3, 0, 4, 0, 2, 2, 2, 12, 0, 0, 2, 6, 2, 2, 0, 2, 0, 6, 8, 2, 0, 13, 4, 2, 0, 2, 0, 2, 12, 0, 0, 0, 0, 12, 0, 0, 0, 4, 0, 0, 0, 3, 0, 2, 6, 2, 0, 0, 2, 2, 0, 0, 0, 0, 0, 0, 8, 0, 0, 0, 0, 0, 0, 0, 0, 0, 0, 0, 0, 0, 0, 0, 0, 0, 0, 0, 0, 0], "split_type": [0, 0, 0, 0, 0, 0, 0, 0, 0, 0, 0, 0, 0, 0, 0, 0, 0, 0, 0, 0, 0, 0, 0, 0, 0, 0, 0, 0, 0, 0, 0, 0, 0, 0, 0, 0, 0, 0, 0, 0, 0, 0, 0, 0, 0, 0, 0, 0, 0, 0, 0, 0, 0, 0, 0, 0, 0, 0, 0, 0, 0, 0, 0, 0, 0, 0, 0, 0, 0, 0, 0, 0, 0, 0, 0, 0, 0, 0, 0, 0, 0, 0, 0, 0, 0, 0, 0, 0, 0], "sum_hessian": [441.17636, 436.9195, 4.256861, 137.63852, 299.281, 110.323654, 27.31486, 283.79074, 15.490245, 107.840485, 2.483169, 20.338337, 6.9765224, 282.60828, 1.1824615, 7.5677533, 7.9224916, 84.546, 23.29449, 1.0642153, 1.4189538, 14.544276, 5.794061, 4.138615, 2.8379076, 232.35368, 50.254612, 4.848092, 2.7196612, 4.3751073, 3.5473843, 1.4189538, 83.12704, 8.986707, 14.307784, 5.3210764, 9.223199, 2.364923, 3.4291382, 2.7196612, 1.4189538, 1.655446, 1.1824615, 1.5371999, 48.71741, 1.0642153, 1.655446, 1.0642153, 3.310892, 2.1284306, 1.4189538, 1.5371999, 81.58984, 5.3210764, 3.6656306, 10.878645, 3.4291382, 2.0101845, 3.310892, 2.7196612, 6.503538, 1.0642153, 1.3007076, 2.1284306, 1.3007076, 1.1824615, 1.5371999, 35.473843, 13.243568, 2.2466767, 1.0642153, 63.49818, 18.09166, 3.4291382, 1.8919383, 1.8919383, 1.7736921, 2.483169, 8.395476, 1.1824615, 2.2466767, 1.4189538, 1.3007076, 2.7196612, 3.7838767, 1.8919383, 33.581905, 7.0947685, 6.1487994], "tree_param": {"num_deleted": "0", "num_feature": "14", "num_nodes": "89", "size_leaf_vector": "1"}}, {"base_weights": [-1.1335657], "categories": [], "categories_nodes": [], "categories_segments": [], "categories_sizes": [], "default_left": [0], "id": 4, "left_children": [-1], "loss_changes": [0.0], "parents": [2147483647], "right_children": [-1], "split_conditions": [-0.11335657], "split_indices": [0], "split_type": [0], "sum_hessian": [640.56586], "tree_param": {"num_deleted": "0", "num_feature": "14", "num_nodes": "1", "size_leaf_vector": "1"}}, {"base_weights": [-1.1378418, -0.10840499, -0.12454238], "categories": [], "categories_nodes": [], "categories_segments": [], "categories_sizes": [], "default_left": [0, 0, 0], "id": 5, "left_children": [1, -1, -1], "loss_changes": [1.7701416, 0.0, 0.0], "parents": [2147483647, 0, 0], "right_children": [2, -1, -1], "split_conditions": [7298.0, -0.10840499, -0.12454238], "split_indices": [10, 0, 0], "split_type": [0, 0, 0], "sum_hessian": [538.17865, 366.1678, 172.01086], "tree_param": {"num_deleted": "0", "num_feature": "14", "num_nodes": "3", "size_leaf_vector": "1"}}, {"base_weights": [-1.048359, -1.0550566, 0.6300497, -0.105622485, -0.40616527, 0.14897189, -0.06635129, -0.0559843, -0.0045474614], "categories": [], "categories_nodes": [], "categories_segments": [], "categories_sizes": [], "default_left": [0, 0, 0, 0, 0, 0, 0, 0, 0], "id": 6, "left_children": [1, 3, 5, -1, 7, -1, -1, -1, -1], "loss_changes": [9.871704, 0.18963623, 5.3046994, 0.0, 0.14590049, 0.0, 0.0, 0.0, 0.0], "parents": [2147483647, 0, 0, 1, 1, 2, 2, 4, 4], "right_children": [2, 4, 6, -1, 8, -1, -1, -1, -1], "split_conditions": [7298.0, 5178.0, 2.0, -0.105622485, 127671.0, 0.14897189, -0.06635129, -0.0559843, -0.0045474614], "split_indices": [10, 10, 7, 0, 2, 0, 0, 0, 0], "split_type": [0, 0, 0, 0, 0, 0, 0, 0, 0], "sum_hessian": [818.0248, 815.1434, 2.881396, 813.05194, 2.091444, 1.6399117, 1.2414844, 1.0794054, 1.0120386], "tree_param": {"num_deleted": "0", "num_feature": "14", "num_nodes": "9", "size_leaf_vector": "1"}}, {"base_weights": [-0.5055997, -0.6184602, 0.37626705, 0.013302898, -0.9206602, -0.39311567, 1.4498227, -0.98511475, 0.1717685, -0.6668805, 0.15065809, -0.062289465, 1.6451274, -1.0395924, -0.7112097, 0.59538907, -0.078328736, -0.8534257, -0.34953868, -0.27625602, 0.8646597, 1.0669442, 2.7820773, -0.10467742, -0.015901335, 0.07612489, -0.79928434, -0.06128924, 0.93175226, -0.9706199, -0.5020149, -0.57579833, 0.38021892, 0.17524144, -0.79171854, -0.21263863, 1.6905936, 0.48987496, 2.0670643, 0.060947843, 0.34317383, -0.98031485, -0.26091433, -0.13274547, 1.5272111, -0.009906752, -0.10193588, 0.09012916, -0.8104234, -0.13339902, -0.7614126, -0.057240337, 0.8219659, 0.93054557, -0.37785223, -0.090332374, -0.009609338, -0.5076382, 0.040585868, 0.22040871, 0.042632047, -0.32806844, 0.92970186, -0.017172275, 0.3027727, -0.010941908, -0.10242207, -0.66636086, 0.24000676, 0.04515299, -0.05976015, 0.059077054, 0.1797148, -0.09161386, -0.009335349, 0.020656256, -0.0632918, -0.09213057, -0.027999325, 0.11292739, 0.019063458, -0.0047339527, 0.19019787, 0.0034812763, -0.073722355, -0.066820666, -0.004530641, 0.029077113, -0.07002326, 0.13446407, -0.025942013, -0.07794859, -0.022561474, 0.07334197, -0.033921976], "categories": [], "categories_nodes": [], "categories_segments": [], "categories_sizes": [], "default_left": [0, 0, 0, 0, 0, 0, 0, 0, 0, 0, 0, 0, 0, 0, 0, 0, 0, 0, 0, 0, 0, 0, 0, 0, 0, 0, 0, 0, 0, 0, 0, 0, 0, 0, 0, 0, 0, 0, 0, 0, 0, 0, 0, 0, 0, 0, 0, 0, 0, 0, 0, 0, 0, 0, 0, 0, 0, 0, 0, 0, 0, 0, 0, 0, 0, 0, 0, 0, 0, 0, 0, 0, 0, 0, 0, 0, 0, 0, 0, 0, 0, 0, 0, 0, 0, 0, 0, 0, 0, 0, 0, 0, 0, 0, 0], "id": 7, "left_children": [1, 3, -1, 5, 7, 9, 11, 13, 15, 17, 19, -1, 21, 23, 25, 27, -1, 29, 31, 33, 35, 37, 39, -1, -1, -1, 41, -1, 43, 45, 47, 49, 51, 53, 55, 57, 59, 61, 63, -1, -1, 65, 67, 69, 71, -1, -1, -1, 73, 75, 77, -1, 79, 81, 83, -1, -1, 85, -1, -1, -1, 87, 89, -1, -1, -1, -1, 91, 93, -1, -1, -1, -1, -1, -1, -1, -1, -1, -1, -1, -1, -1, -1, -1, -1, -1, -1, -1, -1, -1, -1, -1, -1, -1, -1], "loss_changes": [127.32381, 48.43978, 0.0, 49.06288, 12.251526, 9.85565, 8.526051, 1.6806641, 4.678759, 2.2928448, 7.1763163, 0.0, 8.344494, 0.67536926, 4.5083113, 3.7333124, 0.0, 0.61943245, 3.174164, 3.6299257, 8.152472, 6.5075235, 5.2187767, 0.0, 0.0, 0.0, 2.5571594, 0.0, 4.312178, 0.70952797, 4.5354767, 1.0529628, 2.5065007, 4.0342917, 0.47105074, 1.0615833, 2.351305, 3.7489758, 10.1054325, 0.0, 0.0, 0.6999569, 1.9117525, 1.151371, 0.009451866, 0.0, 0.0, 0.0, 0.5007782, 1.0423019, 0.48808432, 0.0, 0.50566196, 3.9043758, 0.8858241, 0.0, 0.0, 0.23839366, 0.0, 0.0, 0.0, 1.1448323, 3.5492802, 0.0, 0.0, 0.0, 0.0, 0.075023174, 1.5616539, 0.0, 0.0, 0.0, 0.0, 0.0, 0.0, 0.0, 0.0, 0.0, 0.0, 0.0, 0.0, 0.0, 0.0, 0.0, 0.0, 0.0, 0.0, 0.0, 0.0, 0.0, 0.0, 0.0, 0.0, 0.0, 0.0], "parents": [2147483647, 0, 0, 1, 1, 3, 3, 4, 4, 5, 5, 6, 6, 7, 7, 8, 8, 9, 9, 10, 10, 12, 12, 13, 13, 14, 14, 15, 15, 17, 17, 18, 18, 19, 19, 20, 20, 21, 21, 22, 22, 26, 26, 28, 28, 29, 29, 30, 30, 31, 31, 32, 32, 33, 33, 34, 34, 35, 35, 36, 36, 37, 37, 38, 38, 41, 41, 42, 42, 43, 43, 44, 44, 48, 48, 49, 49, 50, 50, 52, 52, 53, 53, 54, 54, 57, 57, 61, 61, 62, 62, 67, 67, 68, 68], "right_children": [2, 4, -1, 6, 8, 10, 12, 14, 16, 18, 20, -1, 22, 24, 26, 28, -1, 30, 32, 34, 36, 38, 40, -1, -1, -1, 42, -1, 44, 46, 48, 50, 52, 54, 56, 58, 60, 62, 64, -1, -1, 66, 68, 70, 72, -1, -1, -1, 74, 76, 78, -1, 80, 82, 84, -1, -1, 86, -1, -1, -1, 88, 90, -1, -1, -1, -1, 92, 94, -1, -1, -1, -1, -1, -1, -1, -1, -1, -1, -1, -1, -1, -1, -1, -1, -1, -1, -1, -1, -1, -1, -1, -1, -1, -1], "split_conditions": [7298.0, 1.0, 0.37626705, 13.0, 5.0, 10.0, 19.0, 13.0, 48.0, 47.0, 45.0, -0.062289465, 223392.0, 1848.0, 34378.0, 28.0, -0.078328736, 220362.0, 44.0, 7.0, 156003.0, 11.0, 37.0, -0.10467742, -0.015901335, 0.07612489, 44.0, -0.06128924, 10.0, 35340.0, 236523.0, 53.0, 123718.0, 125927.0, 50.0, 48.0, 51.0, 116367.0, 6.0, 0.060947843, 0.34317383, 2.0, 37.0, 4.0, 168894.0, -0.009906752, -0.10193588, 0.09012916, 49.0, 193026.0, 65.0, -0.057240337, 5.0, 97823.0, 229646.0, -0.090332374, -0.009609338, 99161.0, 0.040585868, 0.22040871, 0.042632047, 38.0, 187073.0, -0.017172275, 0.3027727, -0.010941908, -0.10242207, 51.0, 187073.0, 0.04515299, -0.05976015, 0.059077054, 0.1797148, -0.09161386, -0.009335349, 0.020656256, -0.0632918, -0.09213057, -0.027999325, 0.11292739, 0.019063458, -0.0047339527, 0.19019787, 0.0034812763, -0.073722355, -0.066820666, -0.004530641, 0.029077113, -0.07002326, 0.13446407, -0.025942013, -0.07794859, -0.022561474, 0.07334197, -0.033921976], "split_indices": [10, 7, 0, 4, 7, 4, 13, 4, 0, 0, 12, 0, 2, 11, 2, 0, 0, 2, 12, 6, 2, 3, 0, 0, 0, 0, 12, 0, 4, 2, 2, 0, 2, 2, 0, 0, 12, 2, 6, 0, 0, 8, 0, 6, 2, 0, 0, 0, 12, 2, 0, 0, 6, 2, 2, 0, 0, 2, 0, 0, 0, 0, 2, 0, 0, 0, 0, 12, 2, 0, 0, 0, 0, 0, 0, 0, 0, 0, 0, 0, 0, 0, 0, 0, 0, 0, 0, 0, 0, 0, 0, 0, 0, 0, 0], "split_type": [0, 0, 0, 0, 0, 0, 0, 0, 0, 0, 0, 0, 0, 0, 0, 0, 0, 0, 0, 0, 0, 0, 0, 0, 0, 0, 0, 0, 0, 0, 0, 0, 0, 0, 0, 0, 0, 0, 0, 0, 0, 0, 0, 0, 0, 0, 0, 0, 0, 0, 0, 0, 0, 0, 0, 0, 0, 0, 0, 0, 0, 0, 0, 0, 0, 0, 0, 0, 0, 0, 0, 0, 0, 0, 0, 0, 0, 0, 0, 0, 0, 0, 0, 0, 0, 0, 0, 0, 0, 0, 0, 0, 0, 0, 0], "sum_hessian": [258.48056, 252.65503, 5.8255367, 82.06026, 170.59476, 64.52988, 17.53038, 161.18301, 9.411747, 42.77052, 21.759361, 1.321053, 16.209328, 132.11157, 29.071447, 6.780714, 2.6310327, 25.872448, 16.898071, 14.001003, 7.758358, 12.030021, 4.1793065, 130.8556, 1.2559575, 1.209384, 27.862062, 1.2975498, 5.483164, 18.080576, 7.791873, 13.059863, 3.8382072, 7.8154354, 6.1855674, 3.6890852, 4.0692725, 8.573137, 3.4568837, 1.4081879, 2.7711186, 20.23651, 7.625553, 2.2456682, 3.237496, 1.1181604, 16.962416, 1.0575342, 6.7343388, 4.3679156, 8.691948, 1.122271, 2.7159364, 3.0153031, 4.8001323, 5.0730724, 1.1124952, 2.6191094, 1.0699757, 2.3652475, 1.7040251, 3.0867758, 5.486361, 1.2845454, 2.1723385, 1.1388543, 19.097656, 4.0318747, 3.5936785, 1.0077274, 1.2379407, 1.437881, 1.7996149, 5.6271353, 1.1072037, 2.9480293, 1.4198866, 5.8389416, 2.8530061, 1.2962521, 1.4196842, 1.9767213, 1.0385818, 2.6547823, 2.1453497, 1.613457, 1.0056524, 1.2413478, 1.845428, 3.970195, 1.516166, 2.5968006, 1.4350741, 1.7968392, 1.7968392], "tree_param": {"num_deleted": "0", "num_feature": "14", "num_nodes": "95", "size_leaf_vector": "1"}}, {"base_weights": [-1.0759506], "categories": [], "categories_nodes": [], "categories_segments": [], "categories_sizes": [], "default_left": [0], "id": 8, "left_children": [-1], "loss_changes": [0.0], "parents": [2147483647], "right_children": [-1], "split_conditions": [-0.107595064], "split_indices": [0], "split_type": [0], "sum_hessian": [288.62228], "tree_param": {"num_deleted": "0", "num_feature": "14", "num_nodes": "1", "size_leaf_vector": "1"}}, {"base_weights": [-1.0116742, -1.020432, 0.4318099, -1.0220592, -0.025716454, -0.52760124, 0.16021295, -0.10251246, -0.63693225, -0.06381239, -0.015189861, 0.017166683, -0.08762616], "categories": [], "categories_nodes": [], "categories_segments": [], "categories_sizes": [], "default_left": [0, 0, 0, 0, 0, 0, 0, 0, 0, 0, 0, 0, 0], "id": 9, "left_children": [1, 3, 5, 7, -1, 9, -1, -1, 11, -1, -1, -1, -1], "loss_changes": [7.8254395, 0.4586792, 5.589717, 0.03100586, 0.0, 0.030723035, 0.0, 0.0, 1.5468259, 0.0, 0.0, 0.0, 0.0], "parents": [2147483647, 0, 0, 1, 1, 2, 2, 3, 3, 5, 5, 8, 8], "right_children": [2, 4, 6, 8, -1, 10, -1, -1, 12, -1, -1, -1, -1], "split_conditions": [7298.0, 5178.0, 41.0, 1887.0, -0.025716454, 39.0, 0.16021295, -0.10251246, 2001.0, -0.06381239, -0.015189861, 0.017166683, -0.08762616], "split_indices": [10, 10, 12, 11, 0, 0, 0, 0, 11, 0, 0, 0, 0], "split_type": [0, 0, 0, 0, 0, 0, 0, 0, 0, 0, 0, 0, 0], "sum_hessian": [583.15857, 579.9331, 3.2254696, 578.3611, 1.5720012, 2.0742288, 1.151241, 572.1454, 6.2157407, 1.06303, 1.0111988, 1.4841392, 4.731601], "tree_param": {"num_deleted": "0", "num_feature": "14", "num_nodes": "13", "size_leaf_vector": "1"}}, {"base_weights": [-1.1745286, -0.106566906, -0.13270468], "categories": [], "categories_nodes": [], "categories_segments": [], "categories_sizes": [], "default_left": [0, 0, 0], "id": 10, "left_children": [1, -1, -1], "loss_changes": [6.7092896, 0.0, 0.0], "parents": [2147483647, 0, 0], "right_children": [2, -1, -1], "split_conditions": [7298.0, -0.106566906, -0.13270468], "split_indices": [10, 0, 0], "split_type": [0, 0, 0], "sum_hessian": [488.2719, 289.57532, 198.69656], "tree_param": {"num_deleted": "0", "num_feature": "14", "num_nodes": "3", "size_leaf_vector": "1"}}, {"base_weights": [-1.0497063], "categories": [], "categories_nodes": [], "categories_segments": [], "categories_sizes": [], "default_left": [0], "id": 11, "left_children": [-1], "loss_changes": [0.0], "parents": [2147483647], "right_children": [-1], "split_conditions": [-0.104970634], "split_indices": [0], "split_type": [0], "sum_hessian": [205.0465], "tree_param": {"num_deleted": "0", "num_feature": "14", "num_nodes": "1", "size_leaf_vector": "1"}}, {"base_weights": [-0.26954406, -0.41130653, 3.0804803, 0.3845316, -0.8262626, 0.3397856, 0.06724335, -0.12161161, 1.9043328, -0.9177042, 0.52740616, -0.48292443, 0.53410727, -0.0154041825, 2.0922546, -0.9958287, -0.5441968, 0.9888234, -0.06849128, -0.7371931, -0.08434633, 0.0072663305, 1.2818406, 2.429602, 0.1789835, -0.10061401, -0.0043159793, -0.896515, 0.00015173298, -0.04930583, 0.14873858, -0.90078586, -0.29117754, -0.37929633, 0.71004176, 0.5314884, -0.6722373, 0.022918684, 2.0440538, 0.0755138, 2.6419146, -0.058817286, 0.093724675, -0.096465826, -0.008779558, 0.0997301, -0.38765442, -0.05343929, 0.046355676, -0.0041138353, -0.096790954, -0.68170816, 0.08780258, -0.08191378, -0.040779233, 0.119940214, 0.0053598206, 0.97481036, -0.06356967, -0.08058346, -0.008841558, -0.05610453, 0.048882995, 0.24357478, 0.040838845, 0.109051086, 3.0481737, -0.084917866, 0.4376252, -0.0050125415, -0.08172774, -0.06879096, 0.033342473, -0.012532246, 0.13169368, 0.329761, 0.10737665, 0.10718771, -0.05322277], "categories": [], "categories_nodes": [], "categories_segments": [], "categories_sizes": [], "default_left": [0, 0, 0, 0, 0, 0, 0, 0, 0, 0, 0, 0, 0, 0, 0, 0, 0, 0, 0, 0, 0, 0, 0, 0, 0, 0, 0, 0, 0, 0, 0, 0, 0, 0, 0, 0, 0, 0, 0, 0, 0, 0, 0, 0, 0, 0, 0, 0, 0, 0, 0, 0, 0, 0, 0, 0, 0, 0, 0, 0, 0, 0, 0, 0, 0, 0, 0, 0, 0, 0, 0, 0, 0, 0, 0, 0, 0, 0, 0], "id": 12, "left_children": [1, 3, 5, 7, 9, -1, -1, 11, 13, 15, 17, 19, 21, -1, 23, 25, 27, 29, -1, 31, 33, 35, 37, 39, 41, -1, -1, 43, 45, 47, -1, 49, 51, 53, 55, 57, 59, 61, 63, -1, 65, -1, -1, -1, -1, -1, 67, -1, -1, -1, -1, 69, -1, -1, 71, -1, -1, 73, -1, -1, -1, -1, -1, -1, -1, -1, 75, -1, 77, -1, -1, -1, -1, -1, -1, -1, -1, -1, -1], "loss_changes": [90.74889, 60.30613, 3.6514435, 48.645157, 15.3025055, 0.0, 0.0, 11.666435, 6.4276237, 2.7409897, 5.2699146, 3.1374655, 6.916854, 0.0, 8.9445, 0.8587189, 4.1553903, 3.36303, 0.0, 1.134696, 3.414993, 4.389666, 6.9212723, 2.3685532, 2.4462943, 0.0, 0.0, 0.6401739, 4.065278, 1.0015464, 0.0, 0.74091816, 3.6193051, 1.5213854, 1.215302, 4.215223, 0.34771085, 1.2945098, 1.8959179, 0.0, 3.2891846, 0.0, 0.0, 0.0, 0.0, 0.0, 3.254668, 0.0, 0.0, 0.0, 0.0, 0.431854, 0.0, 0.0, 1.9131432, 0.0, 0.0, 2.209064, 0.0, 0.0, 0.0, 0.0, 0.0, 0.0, 0.0, 0.0, 0.27994537, 0.0, 2.6463747, 0.0, 0.0, 0.0, 0.0, 0.0, 0.0, 0.0, 0.0, 0.0, 0.0], "parents": [2147483647, 0, 0, 1, 1, 2, 2, 3, 3, 4, 4, 7, 7, 8, 8, 9, 9, 10, 10, 11, 11, 12, 12, 14, 14, 15, 15, 16, 16, 17, 17, 19, 19, 20, 20, 21, 21, 22, 22, 23, 23, 24, 24, 27, 27, 28, 28, 29, 29, 31, 31, 32, 32, 33, 33, 34, 34, 35, 35, 36, 36, 37, 37, 38, 38, 40, 40, 46, 46, 51, 51, 54, 54, 57, 57, 66, 66, 68, 68], "right_children": [2, 4, 6, 8, 10, -1, -1, 12, 14, 16, 18, 20, 22, -1, 24, 26, 28, 30, -1, 32, 34, 36, 38, 40, 42, -1, -1, 44, 46, 48, -1, 50, 52, 54, 56, 58, 60, 62, 64, -1, 66, -1, -1, -1, -1, -1, 68, -1, -1, -1, -1, 70, -1, -1, 72, -1, -1, 74, -1, -1, -1, -1, -1, -1, -1, -1, 76, -1, 78, -1, -1, -1, -1, -1, -1, -1, -1, -1, -1], "split_conditions": [7298.0, 1.0, 62.0, 13.0, 5.0, 0.3397856, 0.06724335, 10.0, 26.0, 13.0, 48.0, 47.0, 45.0, -0.0154041825, 12.0, 1726.0, 37.0, 10.0, -0.06849128, 220362.0, 44.0, 7.0, 156003.0, 103538.0, 192614.0, -0.10061401, -0.0043159793, 51.0, 83141.0, 37.0, 0.14873858, 41031.0, 49.0, 9.0, 5.0, 229646.0, 47.0, 40.0, 239723.0, 0.0755138, 37.0, -0.058817286, 0.093724675, -0.096465826, -0.008779558, 0.0997301, 43.0, -0.05343929, 0.046355676, -0.0041138353, -0.096790954, 246392.0, 0.08780258, -0.08191378, 39.0, 0.119940214, 0.0053598206, 32.0, -0.06356967, -0.08058346, -0.008841558, -0.05610453, 0.048882995, 0.24357478, 0.040838845, 0.109051086, 56.0, -0.084917866, 48.0, -0.0050125415, -0.08172774, -0.06879096, 0.033342473, -0.012532246, 0.13169368, 0.329761, 0.10737665, 0.10718771, -0.05322277], "split_indices": [10, 7, 0, 4, 7, 0, 0, 4, 12, 4, 0, 0, 12, 0, 6, 11, 0, 4, 0, 2, 12, 6, 2, 2, 2, 0, 0, 12, 2, 0, 0, 2, 12, 4, 6, 2, 0, 0, 2, 0, 0, 0, 0, 0, 0, 0, 12, 0, 0, 0, 0, 2, 0, 0, 12, 0, 0, 0, 0, 0, 0, 0, 0, 0, 0, 0, 12, 0, 0, 0, 0, 0, 0, 0, 0, 0, 0, 0, 0], "split_type": [0, 0, 0, 0, 0, 0, 0, 0, 0, 0, 0, 0, 0, 0, 0, 0, 0, 0, 0, 0, 0, 0, 0, 0, 0, 0, 0, 0, 0, 0, 0, 0, 0, 0, 0, 0, 0, 0, 0, 0, 0, 0, 0, 0, 0, 0, 0, 0, 0, 0, 0, 0, 0, 0, 0, 0, 0, 0, 0, 0, 0, 0, 0, 0, 0, 0, 0, 0, 0, 0, 0, 0, 0, 0, 0, 0, 0, 0, 0], "sum_hessian": [187.4195, 180.6521, 6.7674036, 61.937126, 118.71497, 5.6161623, 1.151241, 47.15347, 14.783656, 111.50478, 7.210191, 30.57153, 16.58194, 1.2518618, 13.531795, 90.83844, 20.666336, 5.356009, 1.8541815, 18.145954, 12.425576, 10.320206, 6.2617345, 11.274084, 2.2577102, 89.81024, 1.0282027, 12.15337, 8.512966, 2.0300503, 3.3259587, 12.530352, 5.6156015, 9.442267, 2.9833088, 5.948724, 4.3714814, 2.7498946, 3.5118396, 1.7813885, 9.492696, 1.2337779, 1.0239323, 11.031063, 1.1223067, 1.9436626, 6.569304, 1.0217015, 1.008349, 1.0243572, 11.505995, 4.522102, 1.0934999, 3.4890711, 5.953196, 1.2353034, 1.7480054, 4.430677, 1.5180467, 3.2479663, 1.1235154, 1.1297275, 1.6201673, 2.4386952, 1.0731444, 2.7345183, 6.7581773, 4.194589, 2.3747146, 1.0411922, 3.4809096, 1.8740231, 4.0791726, 1.2013482, 3.2293289, 5.4051437, 1.3530337, 1.372167, 1.0025477], "tree_param": {"num_deleted": "0", "num_feature": "14", "num_nodes": "79", "size_leaf_vector": "1"}}, {"base_weights": [-1.0325022], "categories": [], "categories_nodes": [], "categories_segments": [], "categories_sizes": [], "default_left": [0], "id": 13, "left_children": [-1], "loss_changes": [0.0], "parents": [2147483647], "right_children": [-1], "split_conditions": [-0.10325022], "split_indices": [0], "split_type": [0], "sum_hessian": [147.00093], "tree_param": {"num_deleted": "0", "num_feature": "14", "num_nodes": "1", "size_leaf_vector": "1"}}, {"base_weights": [-0.9799802, -0.99384516, 0.23803946, -0.09980787, -0.5283259, 0.15553264, -0.64215684, 0.030552119, -0.08199878, -0.012422801, -0.07749835], "categories": [], "categories_nodes": [], "categories_segments": [], "categories_sizes": [], "default_left": [0, 0, 0, 0, 0, 0, 0, 0, 0, 0, 0], "id": 14, "left_children": [1, 3, 5, -1, 7, -1, 9, -1, -1, -1, -1], "loss_changes": [7.332733, 0.29187012, 7.4176846, 0.0, 1.6782771, 0.0, 0.18071997, 0.0, 0.0, 0.0, 0.0], "parents": [2147483647, 0, 0, 1, 1, 2, 2, 4, 4, 6, 6], "right_children": [2, 4, 6, -1, 8, -1, 10, -1, -1, -1, -1], "split_conditions": [5178.0, 1887.0, 1.0, -0.09980787, 2001.0, 0.15553264, 2.0, 0.030552119, -0.08199878, -0.012422801, -0.07749835], "split_indices": [10, 11, 7, 0, 11, 0, 7, 0, 0, 0, 0], "split_type": [0, 0, 0, 0, 0, 0, 0, 0, 0, 0, 0], "sum_hessian": [419.19147, 414.6554, 4.5360775, 409.78473, 4.8706636, 1.5096856, 3.0263917, 1.249859, 3.6208048, 1.0127306, 2.0136614], "tree_param": {"num_deleted": "0", "num_feature": "14", "num_nodes": "11", "size_leaf_vector": "1"}}, {"base_weights": [0.020658743, 1.0489023, -0.6497377, -0.10646151, 1.8925474, -0.78438175, 0.9904717, -0.29758713, 0.18824475, 1.0863419, 2.4508564, -0.84077525, 0.14997618, 0.054342322, 1.5754983, -0.6690228, 0.22628732, -0.07237473, 1.4051288, -0.009539771, 2.6133964, -0.95369613, -0.33198902, 0.06338718, -0.058366813, 0.19149384, 0.036542054, -0.82462263, -0.23783828, -0.5472093, 0.64411676, 0.07874363, -0.06900887, 1.8183472, 0.022789372, 0.056974974, 2.7693372, -0.9684212, -0.0022925409, -0.8170972, 0.33388734, -0.0031696563, -0.09148478, 0.055902053, -0.07420176, -0.06987629, -0.006596084, -0.059066683, 1.0263888, 0.25150308, 0.74592006, -0.06357422, 0.08129879, 2.9572754, 0.026293695, -0.42703798, -0.09826273, -0.09030156, -0.021041665, 0.9136345, -0.48459274, -0.021208925, 1.4897565, -0.02500837, 1.277526, 0.31443647, 0.10577466, -0.059354316, -0.0018760266, 1.3277259, -0.012625352, -0.06471793, -0.003133446, 0.19531551, 0.025573885, -0.008623499, 0.1939584, 0.024879646, 0.19258909], "categories": [], "categories_nodes": [], "categories_segments": [], "categories_sizes": [], "default_left": [0, 0, 0, 0, 0, 0, 0, 0, 0, 0, 0, 0, 0, 0, 0, 0, 0, 0, 0, 0, 0, 0, 0, 0, 0, 0, 0, 0, 0, 0, 0, 0, 0, 0, 0, 0, 0, 0, 0, 0, 0, 0, 0, 0, 0, 0, 0, 0, 0, 0, 0, 0, 0, 0, 0, 0, 0, 0, 0, 0, 0, 0, 0, 0, 0, 0, 0, 0, 0, 0, 0, 0, 0, 0, 0, 0, 0, 0, 0], "id": 15, "left_children": [1, 3, 5, 7, 9, 11, 13, 15, -1, 17, 19, 21, -1, 23, 25, 27, 29, 31, 33, -1, 35, 37, 39, -1, -1, -1, -1, 41, 43, 45, 47, -1, -1, 49, 51, -1, 53, 55, -1, 57, 59, -1, -1, -1, -1, -1, -1, -1, 61, -1, 63, -1, -1, 65, -1, 67, -1, -1, -1, 69, 71, -1, 73, -1, 75, -1, -1, -1, -1, 77, -1, -1, -1, -1, -1, -1, -1, -1, -1], "loss_changes": [96.46091, 54.025017, 19.48814, 9.778831, 11.726921, 11.418518, 3.6764932, 4.6246347, 0.0, 5.596815, 7.737015, 4.141548, 0.0, 1.7297695, 1.0220032, 0.72331, 3.676302, 2.753256, 6.6506557, 0.0, 3.853119, 0.84083176, 5.3210087, 0.0, 0.0, 0.0, 0.0, 0.6624403, 2.4393864, 0.2564217, 3.9749727, 0.0, 0.0, 4.853363, 2.4468358, 0.0, 6.558731, 0.056941986, 0.0, 0.29638577, 3.9051008, 0.0, 0.0, 0.0, 0.0, 0.0, 0.0, 0.0, 3.652967, 0.0, 2.95025, 0.0, 0.0, 1.7881546, 0.0, 0.21680379, 0.0, 0.0, 0.0, 2.1561096, 0.25082892, 0.0, 1.9916067, 0.0, 3.2399864, 0.0, 0.0, 0.0, 0.0, 1.708363, 0.0, 0.0, 0.0, 0.0, 0.0, 0.0, 0.0, 0.0, 0.0], "parents": [2147483647, 0, 0, 1, 1, 2, 2, 3, 3, 4, 4, 5, 5, 6, 6, 7, 7, 9, 9, 10, 10, 11, 11, 13, 13, 14, 14, 15, 15, 16, 16, 17, 17, 18, 18, 20, 20, 21, 21, 22, 22, 27, 27, 28, 28, 29, 29, 30, 30, 33, 33, 34, 34, 36, 36, 37, 37, 39, 39, 40, 40, 48, 48, 50, 50, 53, 53, 55, 55, 59, 59, 60, 60, 62, 62, 64, 64, 69, 69], "right_children": [2, 4, 6, 8, 10, 12, 14, 16, -1, 18, 20, 22, -1, 24, 26, 28, 30, 32, 34, -1, 36, 38, 40, -1, -1, -1, -1, 42, 44, 46, 48, -1, -1, 50, 52, -1, 54, 56, -1, 58, 60, -1, -1, -1, -1, -1, -1, -1, 62, -1, 64, -1, -1, 66, -1, 68, -1, -1, -1, 70, 72, -1, 74, -1, 76, -1, -1, -1, -1, 78, -1, -1, -1, -1, -1, -1, -1, -1, -1], "split_conditions": [1.0, 10.0, 5.0, 5178.0, 13.0, 6767.0, 168894.0, 47.0, 0.18824475, 102559.0, 19.0, 13.0, 0.14997618, 126675.0, 238360.0, 220362.0, 9.0, 48093.0, 239723.0, -0.009539771, 31.0, 1594.0, 37.0, 0.06338718, -0.058366813, 0.19149384, 0.036542054, 49278.0, 261422.0, 177989.0, 39.0, 0.07874363, -0.06900887, 7.0, 42.0, 0.056974974, 61.0, 13.0, -0.0022925409, 46.0, 187073.0, -0.0031696563, -0.09148478, 0.055902053, -0.07420176, -0.06987629, -0.006596084, -0.059066683, 124915.0, 0.25150308, 12.0, -0.06357422, 0.08129879, 12.0, 0.026293695, 33.0, -0.09826273, -0.09030156, -0.021041665, 2.0, 268145.0, -0.021208925, 224566.0, -0.02500837, 45.0, 0.31443647, 0.10577466, -0.059354316, -0.0018760266, 41.0, -0.012625352, -0.06471793, -0.003133446, 0.19531551, 0.025573885, -0.008623499, 0.1939584, 0.024879646, 0.19258909], "split_indices": [7, 4, 7, 10, 4, 10, 2, 0, 0, 2, 13, 4, 0, 2, 2, 2, 4, 2, 2, 0, 12, 11, 0, 0, 0, 0, 0, 2, 2, 2, 12, 0, 0, 6, 12, 0, 0, 12, 0, 12, 2, 0, 0, 0, 0, 0, 0, 0, 2, 0, 6, 0, 0, 6, 0, 0, 0, 0, 0, 7, 2, 0, 2, 0, 12, 0, 0, 0, 0, 12, 0, 0, 0, 0, 0, 0, 0, 0, 0], "split_type": [0, 0, 0, 0, 0, 0, 0, 0, 0, 0, 0, 0, 0, 0, 0, 0, 0, 0, 0, 0, 0, 0, 0, 0, 0, 0, 0, 0, 0, 0, 0, 0, 0, 0, 0, 0, 0, 0, 0, 0, 0, 0, 0, 0, 0, 0, 0, 0, 0, 0, 0, 0, 0, 0, 0, 0, 0, 0, 0, 0, 0, 0, 0, 0, 0, 0, 0, 0, 0, 0, 0, 0, 0, 0, 0, 0, 0, 0, 0], "sum_hessian": [137.94548, 54.219646, 83.72584, 23.251186, 30.96846, 77.856415, 5.869418, 21.988556, 1.2626293, 13.876453, 17.092007, 76.597206, 1.2592095, 2.6776574, 3.1917605, 12.704083, 9.284472, 3.1607676, 10.715686, 1.0503843, 16.041622, 61.9692, 14.628005, 1.4065347, 1.2711228, 2.0376778, 1.1540829, 8.664795, 4.039289, 3.1477075, 6.136765, 1.2065637, 1.9542038, 8.00682, 2.7088661, 1.4671992, 14.574424, 60.96428, 1.0049235, 8.331322, 6.296684, 1.0232725, 7.6415224, 1.5231566, 2.5161326, 2.050112, 1.0975956, 1.3218586, 4.8149066, 4.0382595, 3.9685607, 1.584145, 1.1247212, 13.390471, 1.1839525, 2.3530097, 58.611267, 6.869944, 1.4613771, 3.6178353, 2.6788485, 1.4586226, 3.356284, 1.5653428, 2.4032178, 11.593283, 1.7971888, 1.349059, 1.0039508, 2.389515, 1.2283202, 1.656731, 1.0221176, 2.0163448, 1.3399391, 1.0696378, 1.33358, 1.3572793, 1.0322357], "tree_param": {"num_deleted": "0", "num_feature": "14", "num_nodes": "79", "size_leaf_vector": "1"}}, {"base_weights": [-1.2143338, -0.10561892, -0.13876407], "categories": [], "categories_nodes": [], "categories_segments": [], "categories_sizes": [], "default_left": [0, 0, 0], "id": 16, "left_children": [1, -1, -1], "loss_changes": [11.007874, 0.0, 0.0], "parents": [2147483647, 0, 0], "right_children": [2, -1, -1], "split_conditions": [7298.0, -0.10561892, -0.13876407], "split_indices": [10, 0, 0], "split_type": [0, 0, 0], "sum_hessian": [454.11212, 241.15216, 212.95996], "tree_param": {"num_deleted": "0", "num_feature": "14", "num_nodes": "3", "size_leaf_vector": "1"}}, {"base_weights": [-1.241374, -0.10531477, -0.1421713], "categories": [], "categories_nodes": [], "categories_segments": [], "categories_sizes": [], "default_left": [0, 0, 0], "id": 17, "left_children": [1, -1, -1], "loss_changes": [12.994995, 0.0, 0.0], "parents": [2147483647, 0, 0], "right_children": [2, -1, -1], "split_conditions": [7298.0, -0.10531477, -0.1421713], "split_indices": [10, 0, 0], "split_type": [0, 0, 0], "sum_hessian": [425.94083, 211.75945, 214.18137], "tree_param": {"num_deleted": "0", "num_feature": "14", "num_nodes": "3", "size_leaf_vector": "1"}}, {"base_weights": [-1.0210823], "categories": [], "categories_nodes": [], "categories_segments": [], "categories_sizes": [], "default_left": [0], "id": 18, "left_children": [-1], "loss_changes": [0.0], "parents": [2147483647], "right_children": [-1], "split_conditions": [-0.10210823], "split_indices": [0], "split_type": [0], "sum_hessian": [107.62587], "tree_param": {"num_deleted": "0", "num_feature": "14", "num_nodes": "1", "size_leaf_vector": "1"}}, {"base_weights": [-0.9500461, -0.9684198, 0.3024354, -0.097414576, -0.42076102, 0.14012526, -0.56848663, 0.041940775, -0.076662704, -0.07026067, -0.012128153], "categories": [], "categories_nodes": [], "categories_segments": [], "categories_sizes": [], "default_left": [0, 0, 0, 0, 0, 0, 0, 0, 0, 0, 0], "id": 19, "left_children": [1, 3, 5, -1, 7, -1, 9, -1, -1, -1, -1], "loss_changes": [7.408966, 0.5465698, 5.8042088, 0.0, 1.7501016, 0.0, 0.1325382, 0.0, 0.0, 0.0, 0.0], "parents": [2147483647, 0, 0, 1, 1, 2, 2, 4, 4, 6, 6], "right_children": [2, 4, 6, -1, 8, -1, 10, -1, -1, -1, -1], "split_conditions": [5178.0, 1887.0, 1.0, -0.097414576, 2001.0, 0.14012526, 41.0, 0.041940775, -0.076662704, -0.07026067, -0.012128153], "split_indices": [10, 11, 7, 0, 11, 0, 0, 0, 0, 0, 0], "split_type": [0, 0, 0, 0, 0, 0, 0, 0, 0, 0, 0], "sum_hessian": [308.2254, 303.9927, 4.232705, 300.0765, 3.9161797, 1.6022556, 2.6304495, 1.0800117, 2.8361678, 1.5842234, 1.0462263], "tree_param": {"num_deleted": "0", "num_feature": "14", "num_nodes": "11", "size_leaf_vector": "1"}}, {"base_weights": [0.36203533, 1.437442, -0.47866893, 0.19431202, 2.174976, -0.66532266, 1.3877923, -0.032074075, 0.17767313, 1.2305757, 2.532127, -0.74520797, 0.1622451, 1.7839944, -0.01007769, -0.52136666, 0.57239676, 1.5170785, -0.0016932013, 0.026559269, 2.673625, -0.9066527, -0.07853429, 0.032931965, 0.2213081, -0.73512524, -0.011612518, -0.40441677, 1.016882, 1.745847, -0.0031352136, 2.8297296, 0.07175359, -0.92738414, -0.0014616371, -0.72592986, 0.6895802, -0.0028257163, -0.08520609, 0.07953128, -0.06531613, -0.056540515, -0.0028679292, -0.013634701, 1.365619, 0.697679, 0.2338889, 1.2209715, 3.0683923, -0.027464464, -0.0947952, -0.08440217, -0.0051710755, 1.2848055, -0.033594396, 0.23745279, 0.39012942, 0.12293216, -0.018238338, 0.18223171, 0.014946095, 0.31901005, 0.08250254, 0.04473275, 0.1745997, -0.017701035, 0.08316194], "categories": [], "categories_nodes": [], "categories_segments": [], "categories_sizes": [], "default_left": [0, 0, 0, 0, 0, 0, 0, 0, 0, 0, 0, 0, 0, 0, 0, 0, 0, 0, 0, 0, 0, 0, 0, 0, 0, 0, 0, 0, 0, 0, 0, 0, 0, 0, 0, 0, 0, 0, 0, 0, 0, 0, 0, 0, 0, 0, 0, 0, 0, 0, 0, 0, 0, 0, 0, 0, 0, 0, 0, 0, 0, 0, 0, 0, 0, 0, 0], "id": 20, "left_children": [1, 3, 5, 7, 9, 11, 13, 15, -1, 17, 19, 21, -1, 23, -1, 25, 27, 29, -1, -1, 31, 33, 35, -1, -1, 37, 39, 41, 43, 45, -1, 47, -1, 49, -1, 51, 53, -1, -1, -1, -1, -1, -1, -1, 55, 57, -1, 59, 61, -1, -1, -1, -1, 63, -1, -1, 65, -1, -1, -1, -1, -1, -1, -1, -1, -1, -1], "loss_changes": [95.98079, 42.206352, 21.793423, 6.652612, 6.693756, 11.285616, 3.582923, 5.3528, 0.0, 3.5734377, 5.7546234, 5.73662, 0.0, 2.1491194, 0.0, 1.0775921, 3.9374366, 2.9181004, 0.0, 0.0, 3.729416, 0.7880478, 6.276243, 0.0, 0.0, 0.5550885, 2.5699935, 0.18069649, 2.5454278, 2.757021, 0.0, 2.830246, 0.0, 0.30815506, 0.0, 0.49695277, 3.9872415, 0.0, 0.0, 0.0, 0.0, 0.0, 0.0, 0.0, 3.5958586, 2.0846562, 0.0, 2.2236762, 1.2602844, 0.0, 0.0, 0.0, 0.0, 0.72257566, 0.0, 0.0, 1.0317585, 0.0, 0.0, 0.0, 0.0, 0.0, 0.0, 0.0, 0.0, 0.0, 0.0], "parents": [2147483647, 0, 0, 1, 1, 2, 2, 3, 3, 4, 4, 5, 5, 6, 6, 7, 7, 9, 9, 10, 10, 11, 11, 13, 13, 15, 15, 16, 16, 17, 17, 20, 20, 21, 21, 22, 22, 25, 25, 26, 26, 27, 27, 28, 28, 29, 29, 31, 31, 33, 33, 35, 35, 36, 36, 44, 44, 45, 45, 47, 47, 48, 48, 53, 53, 56, 56], "right_children": [2, 4, 6, 8, 10, 12, 14, 16, -1, 18, 20, 22, -1, 24, -1, 26, 28, 30, -1, -1, 32, 34, 36, -1, -1, 38, 40, 42, 44, 46, -1, 48, -1, 50, -1, 52, 54, -1, -1, -1, -1, -1, -1, -1, 56, 58, -1, 60, 62, -1, -1, -1, -1, 64, -1, -1, 66, -1, -1, -1, -1, -1, -1, -1, -1, -1, -1], "split_conditions": [1.0, 10.0, 5.0, 5178.0, 37.0, 6767.0, 48.0, 47.0, 0.17767313, 35.0, 26.0, 13.0, 0.1622451, 10.0, -0.01007769, 220362.0, 9.0, 292536.0, -0.0016932013, 0.026559269, 61.0, 213.0, 37.0, 0.032931965, 0.2213081, 61343.0, 261422.0, 167159.0, 128016.0, 173981.0, -0.0031352136, 102559.0, 0.07175359, 13.0, -0.0014616371, 46.0, 187073.0, -0.0028257163, -0.08520609, 0.07953128, -0.06531613, -0.056540515, -0.0028679292, -0.013634701, 174491.0, 109273.0, 0.2338889, 48093.0, 13.0, -0.027464464, -0.0947952, -0.08440217, -0.0051710755, 44.0, -0.033594396, 0.23745279, 7.0, 0.12293216, -0.018238338, 0.18223171, 0.014946095, 0.31901005, 0.08250254, 0.04473275, 0.1745997, -0.017701035, 0.08316194], "split_indices": [7, 4, 7, 10, 0, 10, 0, 0, 0, 0, 12, 4, 0, 4, 0, 2, 4, 2, 0, 0, 0, 11, 0, 0, 0, 2, 2, 2, 2, 2, 0, 2, 0, 12, 0, 12, 2, 0, 0, 0, 0, 0, 0, 0, 2, 2, 0, 2, 6, 0, 0, 0, 0, 12, 0, 0, 6, 0, 0, 0, 0, 0, 0, 0, 0, 0, 0], "split_type": [0, 0, 0, 0, 0, 0, 0, 0, 0, 0, 0, 0, 0, 0, 0, 0, 0, 0, 0, 0, 0, 0, 0, 0, 0, 0, 0, 0, 0, 0, 0, 0, 0, 0, 0, 0, 0, 0, 0, 0, 0, 0, 0, 0, 0, 0, 0, 0, 0, 0, 0, 0, 0, 0, 0, 0, 0, 0, 0, 0, 0, 0, 0, 0, 0, 0, 0], "sum_hessian": [104.40079, 45.49499, 58.905792, 17.411308, 28.083681, 54.135555, 4.7702374, 16.089258, 1.3220513, 8.926147, 19.157534, 52.960526, 1.1750302, 3.6107316, 1.159506, 8.967745, 7.1215134, 7.0833063, 1.842841, 1.2947674, 17.862766, 42.345886, 10.614638, 1.2250607, 2.385671, 6.0067687, 2.9609756, 2.2553148, 4.8661985, 6.060431, 1.0228754, 16.128975, 1.7337905, 41.34537, 1.0005151, 5.789745, 4.8248935, 1.0288835, 4.9778852, 1.2053005, 1.7556752, 1.2254648, 1.02985, 1.2712761, 3.5949223, 2.9763472, 3.084084, 2.8737462, 13.25523, 1.701449, 39.643925, 4.7124863, 1.0772586, 2.89296, 1.9319334, 1.0621712, 2.532751, 1.6080639, 1.3682833, 1.3918964, 1.4818498, 12.17281, 1.0824202, 1.7269428, 1.1660172, 1.3708341, 1.1619171], "tree_param": {"num_deleted": "0", "num_feature": "14", "num_nodes": "67", "size_leaf_vector": "1"}}, {"base_weights": [0.7526663, 1.8060586, -0.25507873, 0.54766417, 2.4041376, -0.5077124, 1.7458054, -0.06984268, 0.8048726, 0.0329452, 2.487645, -0.61940354, 0.17547745, 0.046540838, 0.2255681, 0.1722547, 1.4371164, 1.2465549, 2.66381, -0.8478815, 0.22515455, -0.22006917, 0.13165985, -0.005593481, 0.17796737, 0.18435983, 0.0051765917, 0.09159272, 2.7492058, -0.87601554, -0.00664238, -0.61697596, 1.0642662, -0.5792853, 0.048094667, 0.3987919, 2.3285782, -0.00781314, -0.09062652, -0.076011606, -0.004423495, 0.16295293, -0.017834647, -0.0012044696, -0.07340919, 1.3681839, 2.8412619, 0.012127421, 0.19081798, 0.3204603, 0.07012331], "categories": [], "categories_nodes": [], "categories_segments": [], "categories_sizes": [], "default_left": [0, 0, 0, 0, 0, 0, 0, 0, 0, 0, 0, 0, 0, 0, 0, 0, 0, 0, 0, 0, 0, 0, 0, 0, 0, 0, 0, 0, 0, 0, 0, 0, 0, 0, 0, 0, 0, 0, 0, 0, 0, 0, 0, 0, 0, 0, 0, 0, 0, 0, 0], "id": 21, "left_children": [1, 3, 5, 7, 9, 11, 13, -1, 15, -1, 17, 19, -1, -1, -1, 21, 23, 25, 27, 29, 31, 33, -1, -1, -1, -1, -1, -1, 35, 37, -1, 39, 41, 43, -1, -1, 45, -1, -1, -1, -1, -1, -1, -1, -1, 47, 49, -1, -1, -1, -1], "loss_changes": [87.82991, 29.062134, 22.59179, 5.1449304, 3.8695526, 10.91699, 2.2399101, 0.0, 4.678784, 0.0, 2.3345795, 7.486703, 0.0, 0.0, 0.0, 3.563852, 3.1805706, 3.538785, 0.73147583, 0.600687, 6.9038916, 1.8619368, 0.0, 0.0, 0.0, 0.0, 0.0, 0.0, 1.2685547, 0.6253872, 0.0, 0.3800156, 3.6588578, 0.39605844, 0.0, 0.0, 4.741806, 0.0, 0.0, 0.0, 0.0, 0.0, 0.0, 0.0, 0.0, 5.174241, 5.9150314, 0.0, 0.0, 0.0, 0.0], "parents": [2147483647, 0, 0, 1, 1, 2, 2, 3, 3, 4, 4, 5, 5, 6, 6, 8, 8, 10, 10, 11, 11, 15, 15, 16, 16, 17, 17, 18, 18, 19, 19, 20, 20, 21, 21, 28, 28, 29, 29, 31, 31, 32, 32, 33, 33, 36, 36, 45, 45, 46, 46], "right_children": [2, 4, 6, 8, 10, 12, 14, -1, 16, -1, 18, 20, -1, -1, -1, 22, 24, 26, 28, 30, 32, 34, -1, -1, -1, -1, -1, -1, 36, 38, -1, 40, 42, 44, -1, -1, 46, -1, -1, -1, -1, -1, -1, -1, -1, 48, 50, -1, -1, -1, -1], "split_conditions": [1.0, 10.0, 5.0, 6.0, 26.0, 6767.0, 168894.0, -0.06984268, 47.0, 0.0329452, 102559.0, 13.0, 0.17547745, 0.046540838, 0.2255681, 2907.0, 128016.0, 55849.0, 3.0, 7.0, 37.0, 218962.0, 0.13165985, -0.005593481, 0.17796737, 0.18435983, 0.0051765917, 0.09159272, 126675.0, 13.0, -0.00664238, 44.0, 187073.0, 100345.0, 0.048094667, 0.3987919, 42.0, -0.00781314, -0.09062652, -0.076011606, -0.004423495, 0.16295293, -0.017834647, -0.0012044696, -0.07340919, 12.0, 6.0, 0.012127421, 0.19081798, 0.3204603, 0.07012331], "split_indices": [7, 4, 7, 4, 12, 10, 2, 0, 0, 0, 2, 4, 0, 0, 0, 10, 2, 2, 8, 1, 0, 2, 0, 0, 0, 0, 0, 0, 2, 12, 0, 12, 2, 2, 0, 0, 12, 0, 0, 0, 0, 0, 0, 0, 0, 4, 1, 0, 0, 0, 0], "split_type": [0, 0, 0, 0, 0, 0, 0, 0, 0, 0, 0, 0, 0, 0, 0, 0, 0, 0, 0, 0, 0, 0, 0, 0, 0, 0, 0, 0, 0, 0, 0, 0, 0, 0, 0, 0, 0, 0, 0, 0, 0, 0, 0, 0, 0, 0, 0, 0, 0, 0, 0], "sum_hessian": [81.30338, 39.364075, 41.93931, 13.298638, 26.065437, 37.90024, 4.0390677, 1.9818428, 11.316795, 1.1999002, 24.865538, 36.809322, 1.0909191, 1.6951083, 2.3439593, 6.2927613, 5.024034, 4.0946465, 20.770891, 28.968538, 7.8407836, 5.2876472, 1.0051138, 1.0937203, 3.9303138, 2.3682063, 1.72644, 1.513718, 19.257174, 27.845058, 1.1234801, 4.0454783, 3.7953053, 3.6109598, 1.6766875, 2.73169, 16.525484, 1.1479834, 26.697075, 2.9748464, 1.0706321, 2.3946216, 1.4006838, 1.005269, 2.6056907, 7.0282855, 9.497198, 2.4939852, 4.5343003, 7.6935115, 1.8036864], "tree_param": {"num_deleted": "0", "num_feature": "14", "num_nodes": "51", "size_leaf_vector": "1"}}, {"base_weights": [-1.0129107], "categories": [], "categories_nodes": [], "categories_segments": [], "categories_sizes": [], "default_left": [0], "id": 22, "left_children": [-1], "loss_changes": [0.0], "parents": [2147483647], "right_children": [-1], "split_conditions": [-0.101291075], "split_indices": [0], "split_type": [0], "sum_hessian": [80.46304], "tree_param": {"num_deleted": "0", "num_feature": "14", "num_nodes": "1", "size_leaf_vector": "1"}}, {"base_weights": [-1.2736228, -0.10533514, -1.4640977, -0.15250033, -0.12452414], "categories": [], "categories_nodes": [], "categories_segments": [], "categories_sizes": [], "default_left": [0, 0, 0, 0, 0], "id": 23, "left_children": [1, -1, 3, -1, -1], "loss_changes": [15.56842, 0.0, 0.98202515, 0.0, 0.0], "parents": [2147483647, 0, 0, 2, 2], "right_children": [2, -1, 4, -1, -1], "split_conditions": [7298.0, -0.10533514, 1.0, -0.15250033, -0.12452414], "split_indices": [10, 0, 7, 0, 0], "split_type": [0, 0, 0, 0, 0], "sum_hessian": [406.82135, 191.68307, 215.13829, 163.63284, 51.50545], "tree_param": {"num_deleted": "0", "num_feature": "14", "num_nodes": "5", "size_leaf_vector": "1"}}, {"base_weights": [-0.91936374, -0.94293815, 0.34732845, -0.95048255, -0.31927025, -0.5229777, 0.12688634, -0.961018, -0.6544425, -0.07016869, 0.039107386, -0.063854426, -0.0139438575, -0.0972544, -0.6682945, -0.81440705, 0.035540335, -0.09158375, 0.04646026, -0.025767455, -0.08967524], "categories": [], "categories_nodes": [], "categories_segments": [], "categories_sizes": [], "default_left": [0, 0, 0, 0, 0, 0, 0, 0, 0, 0, 0, 0, 0, 0, 0, 0, 0, 0, 0, 0, 0], "id": 24, "left_children": [1, 3, 5, 7, 9, 11, -1, 13, 15, -1, -1, -1, -1, -1, 17, 19, -1, -1, -1, -1, -1], "loss_changes": [7.2842407, 0.77394104, 4.663518, 0.07513428, 1.4269114, 0.05603999, 0.0, 0.07829285, 2.048952, 0.0, 0.0, 0.0, 0.0, 0.0, 3.6150875, 0.21391773, 0.0, 0.0, 0.0, 0.0, 0.0], "parents": [2147483647, 0, 0, 1, 1, 2, 2, 3, 3, 4, 4, 5, 5, 7, 7, 8, 8, 14, 14, 15, 15], "right_children": [2, 4, 6, 8, 10, 12, -1, 14, 16, -1, -1, -1, -1, -1, 18, 20, -1, -1, -1, -1, -1], "split_conditions": [5178.0, 1887.0, 45.0, 383306.0, 9.0, 7.0, 0.12688634, 14.0, 5.0, -0.07016869, 0.039107386, -0.063854426, -0.0139438575, -0.0972544, 55.0, 2.0, 0.035540335, -0.09158375, 0.04646026, -0.025767455, -0.08967524], "split_indices": [10, 11, 12, 2, 6, 6, 0, 6, 1, 0, 0, 0, 0, 0, 12, 6, 0, 0, 0, 0, 0], "split_type": [0, 0, 0, 0, 0, 0, 0, 0, 0, 0, 0, 0, 0, 0, 0, 0, 0, 0, 0, 0, 0], "sum_hessian": [231.96704, 227.9797, 3.9873369, 224.73708, 3.2426317, 2.273096, 1.7142407, 214.84494, 9.892127, 2.11578, 1.1268514, 1.2358427, 1.0372534, 204.47147, 10.373477, 8.706507, 1.1856203, 8.670526, 1.7029514, 1.6538824, 7.0526247], "tree_param": {"num_deleted": "0", "num_feature": "14", "num_nodes": "21", "size_leaf_vector": "1"}}, {"base_weights": [-1.2954148, -0.105337895, -1.4903238, -1.5578433, -0.12494165, -0.13780378, -0.16505945], "categories": [], "categories_nodes": [], "categories_segments": [], "categories_sizes": [], "default_left": [0, 0, 0, 0, 0, 0, 0], "id": 25, "left_children": [1, -1, 3, 5, -1, -1, -1], "loss_changes": [16.795532, 0.0, 1.5220947, 0.43554688, 0.0, 0.0, 0.0], "parents": [2147483647, 0, 0, 2, 2, 3, 3], "right_children": [2, -1, 4, 6, -1, -1, -1], "split_conditions": [7298.0, -0.105337895, 1.0, 41.0, -0.12494165, -0.13780378, -0.16505945], "split_indices": [10, 0, 7, 12, 0, 0, 0], "split_type": [0, 0, 0, 0, 0, 0, 0], "sum_hessian": [388.30588, 176.06932, 212.23657, 161.50476, 50.73182, 60.356384, 101.14837], "tree_param": {"num_deleted": "0", "num_feature": "14", "num_nodes": "7", "size_leaf_vector": "1"}}, {"base_weights": [-0.88659066, -0.91569716, 0.35469177, -0.92538077, -0.21368085, -0.3615057, 0.13420345, -0.9389781, -0.55829346, -0.064072944, 0.044221763, -0.07170691, 0.023622828, -0.9538082, -0.5813008, -0.75433415, 0.04279324, -0.09593439, -0.34990785, -0.08850524, 0.056841012, -0.013876447, -0.085919045, -0.0012951418, -0.051275976], "categories": [], "categories_nodes": [], "categories_segments": [], "categories_sizes": [], "default_left": [0, 0, 0, 0, 0, 0, 0, 0, 0, 0, 0, 0, 0, 0, 0, 0, 0, 0, 0, 0, 0, 0, 0, 0, 0], "id": 26, "left_children": [1, 3, 5, 7, 9, 11, -1, 13, 15, -1, -1, -1, -1, 17, 19, 21, -1, -1, 23, -1, -1, -1, -1, -1, -1], "loss_changes": [6.8449097, 1.0028687, 3.9186666, 0.3438263, 1.3206288, 0.93492985, 0.0, 0.32728577, 2.000645, 0.0, 0.0, 0.0, 0.0, 0.19267273, 3.7084038, 0.37140083, 0.0, 0.0, 0.15851754, 0.0, 0.0, 0.0, 0.0, 0.0, 0.0], "parents": [2147483647, 0, 0, 1, 1, 2, 2, 3, 3, 4, 4, 5, 5, 7, 7, 8, 8, 13, 13, 14, 14, 15, 15, 18, 18], "right_children": [2, 4, 6, 8, 10, 12, -1, 14, 16, -1, -1, -1, -1, 18, 20, 22, -1, -1, 24, -1, -1, -1, -1, -1, -1], "split_conditions": [5178.0, 1887.0, 49.0, 383306.0, 9.0, 9.0, 0.13420345, 14.0, 5.0, -0.064072944, 0.044221763, -0.07170691, 0.023622828, 74.0, 55.0, 2.0, 0.04279324, -0.09593439, 173580.0, -0.08850524, 0.056841012, -0.013876447, -0.085919045, -0.0012951418, -0.051275976], "split_indices": [10, 11, 12, 2, 6, 6, 0, 6, 1, 0, 0, 0, 0, 0, 12, 6, 0, 0, 2, 0, 0, 0, 0, 0, 0], "split_type": [0, 0, 0, 0, 0, 0, 0, 0, 0, 0, 0, 0, 0, 0, 0, 0, 0, 0, 0, 0, 0, 0, 0, 0, 0], "sum_hessian": [179.46625, 175.6107, 3.8555467, 172.90744, 2.7032666, 2.6019833, 1.2535635, 165.22926, 7.6781716, 1.6512694, 1.0519971, 1.506307, 1.0956762, 157.0509, 8.178371, 6.6011367, 1.077035, 155.04112, 2.0097778, 6.651304, 1.5270672, 1.2989426, 5.3021946, 1.0065848, 1.003193], "tree_param": {"num_deleted": "0", "num_feature": "14", "num_nodes": "25", "size_leaf_vector": "1"}}, {"base_weights": [-1.0063536], "categories": [], "categories_nodes": [], "categories_segments": [], "categories_sizes": [], "default_left": [0], "id": 27, "left_children": [-1], "loss_changes": [0.0], "parents": [2147483647], "right_children": [-1], "split_conditions": [-0.100635365], "split_indices": [0], "split_type": [0], "sum_hessian": [61.816387], "tree_param": {"num_deleted": "0", "num_feature": "14", "num_nodes": "1", "size_leaf_vector": "1"}}, {"base_weights": [1.1811901, 1.89549, -0.44945183, 0.58544457, 2.4985197, -0.61140186, 0.13886686, -0.07413983, 0.9195512, 0.6159635, 2.742852, -0.8176292, 0.098245725, -0.063609526, 1.1874522, 0.19159716, -0.069485, 0.06477014, 2.8294442, -0.008248703, -0.8711642, -0.5088141, 0.10624676, 1.43237, -0.054638285, 0.07118567, 2.9052305, -0.09300617, -0.030616334, -0.06722492, -0.0011847925, -0.020570707, 1.7276229, 2.9919565, 0.090365395, 0.011003955, 2.0586205, 0.124036565, 3.1050212, 0.016881606, 0.25081137, 0.091503225, 0.31682307], "categories": [], "categories_nodes": [], "categories_segments": [], "categories_sizes": [], "default_left": [0, 0, 0, 0, 0, 0, 0, 0, 0, 0, 0, 0, 0, 0, 0, 0, 0, 0, 0, 0, 0, 0, 0, 0, 0, 0, 0, 0, 0, 0, 0, 0, 0, 0, 0, 0, 0, 0, 0, 0, 0, 0, 0], "id": 28, "left_children": [1, 3, 5, 7, 9, 11, -1, -1, 13, 15, 17, 19, 21, -1, 23, -1, -1, -1, 25, -1, 27, 29, -1, 31, -1, -1, 33, -1, -1, -1, -1, -1, 35, 37, -1, -1, 39, -1, 41, -1, -1, -1, -1], "loss_changes": [78.15323, 35.147217, 7.1076455, 7.736404, 12.766525, 3.009688, 0.0, 0.0, 6.2394485, 9.681275, 3.161621, 0.5427408, 3.701316, 0.0, 5.697727, 0.0, 0.0, 0.0, 2.12677, 0.0, 0.19616699, 0.3160919, 0.0, 5.3940525, 0.0, 0.0, 1.6205902, 0.0, 0.0, 0.0, 0.0, 0.0, 4.5565815, 0.79148865, 0.0, 0.0, 5.828142, 0.0, 0.057403564, 0.0, 0.0, 0.0, 0.0], "parents": [2147483647, 0, 0, 1, 1, 2, 2, 3, 3, 4, 4, 5, 5, 8, 8, 9, 9, 10, 10, 11, 11, 12, 12, 14, 14, 18, 18, 20, 20, 21, 21, 23, 23, 26, 26, 32, 32, 33, 33, 36, 36, 38, 38], "right_children": [2, 4, 6, 8, 10, 12, -1, -1, 14, 16, 18, 20, 22, -1, 24, -1, -1, -1, 26, -1, 28, 30, -1, 32, -1, -1, 34, -1, -1, -1, -1, -1, 36, 38, -1, -1, 40, -1, 42, -1, -1, -1, -1], "split_conditions": [3.0, 10.0, 2580.0, 1.0, 1.0, 13.0, 0.13886686, -0.07413983, 6.0, 147653.0, 26.0, 16.0, 44.0, -0.063609526, 14.0, 0.19159716, -0.069485, 0.06477014, 19.0, -0.008248703, 47.0, 39.0, 0.10624676, 38.0, -0.054638285, 0.07118567, 61.0, -0.09300617, -0.030616334, -0.06722492, -0.0011847925, -0.020570707, 33.0, 29.0, 0.090365395, 0.011003955, 128016.0, 0.124036565, 8.0, 0.016881606, 0.25081137, 0.091503225, 0.31682307], "split_indices": [5, 4, 10, 5, 5, 4, 0, 0, 4, 2, 12, 12, 12, 0, 6, 0, 0, 0, 13, 0, 0, 0, 0, 12, 0, 0, 0, 0, 0, 0, 0, 0, 0, 0, 0, 0, 2, 0, 3, 0, 0, 0, 0], "split_type": [0, 0, 0, 0, 0, 0, 0, 0, 0, 0, 0, 0, 0, 0, 0, 0, 0, 0, 0, 0, 0, 0, 0, 0, 0, 0, 0, 0, 0, 0, 0, 0, 0, 0, 0, 0, 0, 0, 0, 0, 0, 0, 0], "sum_hessian": [65.3663, 45.341934, 20.024372, 14.913688, 30.428246, 19.016294, 1.008079, 2.754732, 12.158956, 3.900016, 26.528229, 14.616499, 4.3997946, 1.5843856, 10.574571, 1.7262903, 2.1737258, 1.3894523, 25.138777, 1.1646285, 13.451871, 2.9897797, 1.410015, 9.418067, 1.1565032, 1.2277082, 23.911068, 11.596852, 1.8550178, 1.9844546, 1.0053251, 1.4846189, 7.9334483, 22.443804, 1.4672636, 1.5739603, 6.359488, 2.0867288, 20.357077, 1.4862821, 4.8732057, 1.0052385, 19.351837], "tree_param": {"num_deleted": "0", "num_feature": "14", "num_nodes": "43", "size_leaf_vector": "1"}}, {"base_weights": [1.5685643, 2.1922507, -0.23896521, 0.9383346, 2.6671946, -0.7312197, 0.78316337, -0.06628163, 1.2735592, 0.93337566, 2.8331914, -0.0026322396, -0.8033487, -0.06432109, 1.6276058, -0.054780103, 1.5341854, 0.21011285, -0.0613123, 0.08398556, 0.2884587, -0.0888182, -0.016104056, 0.042261798, 0.1969047, 0.6762733, 2.1815379, 0.034458913, 0.1267249, 0.2611802, 0.08220458, 0.04626708, -0.052988566], "categories": [], "categories_nodes": [], "categories_segments": [], "categories_sizes": [], "default_left": [0, 0, 0, 0, 0, 0, 0, 0, 0, 0, 0, 0, 0, 0, 0, 0, 0, 0, 0, 0, 0, 0, 0, 0, 0, 0, 0, 0, 0, 0, 0, 0, 0], "id": 29, "left_children": [1, 3, 5, 7, 9, 11, 13, -1, 15, 17, 19, -1, 21, -1, 23, -1, 25, -1, -1, -1, -1, -1, -1, -1, -1, 27, 29, 31, -1, -1, -1, -1, -1], "loss_changes": [64.10626, 22.528046, 8.306218, 7.869668, 5.972931, 0.53260756, 7.6463327, 0.0, 6.140602, 8.705962, 0.3264618, 0.0, 0.3934908, 0.0, 0.70035267, 0.0, 4.0955353, 0.0, 0.0, 0.0, 0.0, 0.0, 0.0, 0.0, 0.0, 2.1422687, 0.9342842, 1.161216, 0.0, 0.0, 0.0, 0.0, 0.0], "parents": [2147483647, 0, 0, 1, 1, 2, 2, 3, 3, 4, 4, 5, 5, 6, 6, 8, 8, 9, 9, 10, 10, 12, 12, 14, 14, 16, 16, 25, 25, 26, 26, 27, 27], "right_children": [2, 4, 6, 8, 10, 12, 14, -1, 16, 18, 20, -1, 22, -1, 24, -1, 26, -1, -1, -1, -1, -1, -1, -1, -1, 28, 30, 32, -1, -1, -1, -1, -1], "split_conditions": [3.0, 10.0, 12.0, 1.0, 1.0, 19.0, 30.0, -0.06628163, 6.0, 147653.0, 19.0, -0.0026322396, 47.0, -0.06432109, 174904.0, -0.054780103, 47.0, 0.21011285, -0.0613123, 0.08398556, 0.2884587, -0.0888182, -0.016104056, 0.042261798, 0.1969047, 42.0, 6.0, 7.0, 0.1267249, 0.2611802, 0.08220458, 0.04626708, -0.052988566], "split_indices": [5, 4, 4, 5, 5, 12, 0, 0, 4, 2, 13, 0, 0, 0, 2, 0, 0, 0, 0, 0, 0, 0, 0, 0, 0, 12, 6, 6, 0, 0, 0, 0, 0], "split_type": [0, 0, 0, 0, 0, 0, 0, 0, 0, 0, 0, 0, 0, 0, 0, 0, 0, 0, 0, 0, 0, 0, 0, 0, 0, 0, 0, 0, 0, 0, 0, 0, 0], "sum_hessian": [55.40078, 41.030426, 14.370354, 12.089139, 28.941288, 9.891327, 4.479027, 1.9236897, 10.165449, 3.107424, 25.833864, 1.0448847, 8.846442, 1.7542199, 2.724807, 1.1345928, 9.030856, 1.5661767, 1.5412474, 1.0852273, 24.748636, 7.4762187, 1.3702234, 1.0956991, 1.629108, 4.7631316, 4.2677245, 2.7906854, 1.9724461, 2.542038, 1.7256866, 1.6891552, 1.1015302], "tree_param": {"num_deleted": "0", "num_feature": "14", "num_nodes": "33", "size_leaf_vector": "1"}}, {"base_weights": [-0.8557024, -0.8905554, 0.41228005, -0.90233415, -0.13517818, 0.11727927, -0.04067732, -0.9190182, -0.4671375, -0.059277087, 0.046957158, -0.93748194, -0.47592607, -0.69495475, 0.046090513, -0.09443217, -0.025728626, -0.0846959, 0.06594158, -0.0030851548, -0.082385056], "categories": [], "categories_nodes": [], "categories_segments": [], "categories_sizes": [], "default_left": [0, 0, 0, 0, 0, 0, 0, 0, 0, 0, 0, 0, 0, 0, 0, 0, 0, 0, 0, 0, 0], "id": 30, "left_children": [1, 3, 5, 7, 9, -1, -1, 11, 13, -1, -1, 15, 17, 19, -1, -1, -1, -1, -1, -1, -1], "loss_changes": [6.8623734, 1.1535416, 3.3519583, 0.59432983, 1.2129472, 0.0, 0.0, 0.6561737, 1.8508008, 0.0, 0.0, 0.35403442, 3.6846995, 0.50624037, 0.0, 0.0, 0.0, 0.0, 0.0, 0.0, 0.0], "parents": [2147483647, 0, 0, 1, 1, 2, 2, 3, 3, 4, 4, 7, 7, 8, 8, 11, 11, 12, 12, 13, 13], "right_children": [2, 4, 6, 8, 10, -1, -1, 12, 14, -1, -1, 16, 18, 20, -1, -1, -1, -1, -1, -1, -1], "split_conditions": [5178.0, 1887.0, 1.0, 383306.0, 9.0, 0.11727927, -0.04067732, 14.0, 5.0, -0.059277087, 0.046957158, 74.0, 55.0, 2.0, 0.046090513, -0.09443217, -0.025728626, -0.0846959, 0.06594158, -0.0030851548, -0.082385056], "split_indices": [10, 11, 7, 2, 6, 0, 0, 6, 1, 0, 0, 0, 12, 6, 0, 0, 0, 0, 0, 0, 0], "split_type": [0, 0, 0, 0, 0, 0, 0, 0, 0, 0, 0, 0, 0, 0, 0, 0, 0, 0, 0, 0, 0], "sum_hessian": [145.9737, 142.35835, 3.6153417, 139.98105, 2.3773067, 1.6507179, 1.9646238, 133.74208, 6.238968, 1.3645831, 1.0127237, 127.320816, 6.421265, 5.2109394, 1.0280284, 125.66885, 1.6519598, 5.0310946, 1.3901702, 1.0484449, 4.1624947], "tree_param": {"num_deleted": "0", "num_feature": "14", "num_nodes": "21", "size_leaf_vector": "1"}}, {"base_weights": [-1.0022614], "categories": [], "categories_nodes": [], "categories_segments": [], "categories_sizes": [], "default_left": [0], "id": 31, "left_children": [-1], "loss_changes": [0.0], "parents": [2147483647], "right_children": [-1], "split_conditions": [-0.10022614], "split_indices": [0], "split_type": [0], "sum_hessian": [49.97543], "tree_param": {"num_deleted": "0", "num_feature": "14", "num_nodes": "1", "size_leaf_vector": "1"}}, {"base_weights": [-1.3238685, -0.10571065, -1.5352882, -1.6169676, -0.123571075, -0.1380453, -0.17388394], "categories": [], "categories_nodes": [], "categories_segments": [], "categories_sizes": [], "default_left": [0, 0, 0, 0, 0, 0, 0], "id": 32, "left_children": [1, -1, 3, 5, -1, -1, -1], "loss_changes": [19.8891, 0.0, 3.1545715, 2.2755737, 0.0, 0.0, 0.0], "parents": [2147483647, 0, 0, 2, 2, 3, 3], "right_children": [2, -1, 4, 6, -1, -1, -1], "split_conditions": [7298.0, -0.10571065, 1.0, 41.0, -0.123571075, -0.1380453, -0.17388394], "split_indices": [10, 0, 7, 12, 0, 0, 0], "split_type": [0, 0, 0, 0, 0, 0, 0], "sum_hessian": [380.42874, 170.85272, 209.57602, 161.22166, 48.354362, 59.01644, 102.205215], "tree_param": {"num_deleted": "0", "num_feature": "14", "num_nodes": "7", "size_leaf_vector": "1"}}, {"base_weights": [-0.82677025, -0.866763, 0.49003312, -0.8805212, -0.078077145, -0.26256663, 0.13575149, -0.90017855, -0.3881846, 0.042633936, -0.053838056, -0.06087163, 0.020926952, -0.9220235, -0.39623347, -0.6386629, 0.045204226, -0.093003646, -0.021881906, -0.08152918, 0.066783585, -0.07837027, -0.0010166107], "categories": [], "categories_nodes": [], "categories_segments": [], "categories_sizes": [], "default_left": [0, 0, 0, 0, 0, 0, 0, 0, 0, 0, 0, 0, 0, 0, 0, 0, 0, 0, 0, 0, 0, 0, 0], "id": 33, "left_children": [1, 3, 5, 7, 9, 11, -1, 13, 15, -1, -1, -1, -1, 17, 19, 21, -1, -1, -1, -1, -1, -1, -1], "loss_changes": [6.9633026, 1.2427139, 3.1628132, 0.799263, 0.96544397, 0.64016545, 0.0, 0.8827896, 1.6177909, 0.0, 0.0, 0.0, 0.0, 0.40454865, 3.426837, 0.47328544, 0.0, 0.0, 0.0, 0.0, 0.0, 0.0, 0.0], "parents": [2147483647, 0, 0, 1, 1, 2, 2, 3, 3, 4, 4, 5, 5, 7, 7, 8, 8, 13, 13, 14, 14, 15, 15], "right_children": [2, 4, 6, 8, 10, 12, -1, 14, 16, -1, -1, -1, -1, 18, 20, 22, -1, -1, -1, -1, -1, -1, -1], "split_conditions": [5178.0, 1887.0, 49.0, 383306.0, 2051.0, 8.0, 0.13575149, 14.0, 5.0, 0.042633936, -0.053838056, -0.06087163, 0.020926952, 74.0, 55.0, 14.0, 0.045204226, -0.093003646, -0.021881906, -0.08152918, 0.066783585, -0.07837027, -0.0010166107], "split_indices": [10, 11, 12, 2, 11, 6, 0, 6, 1, 0, 0, 0, 0, 0, 12, 3, 0, 0, 0, 0, 0, 0, 0], "split_type": [0, 0, 0, 0, 0, 0, 0, 0, 0, 0, 0, 0, 0, 0, 0, 0, 0, 0, 0, 0, 0, 0, 0], "sum_hessian": [123.15967, 119.86112, 3.2985435, 117.69162, 2.1695082, 2.1396093, 1.1589341, 112.37641, 5.315202, 1.0703585, 1.0991498, 1.0668459, 1.0727634, 106.912384, 5.4640284, 4.2793784, 1.0358242, 105.38892, 1.523464, 4.0879035, 1.376125, 3.2763405, 1.0030377], "tree_param": {"num_deleted": "0", "num_feature": "14", "num_nodes": "23", "size_leaf_vector": "1"}}, {"base_weights": [-0.9992818], "categories": [], "categories_nodes": [], "categories_segments": [], "categories_sizes": [], "default_left": [0], "id": 34, "left_children": [-1], "loss_changes": [0.0], "parents": [2147483647], "right_children": [-1], "split_conditions": [-0.099928185], "split_indices": [0], "split_type": [0], "sum_hessian": [42.025562], "tree_param": {"num_deleted": "0", "num_feature": "14", "num_nodes": "1", "size_leaf_vector": "1"}}, {"base_weights": [-1.3600287, -0.10612245, -1.5944071, -1.6915482, -0.119368814, -0.14396124, -0.18272117], "categories": [], "categories_nodes": [], "categories_segments": [], "categories_sizes": [], "default_left": [0, 0, 0, 0, 0, 0, 0], "id": 35, "left_children": [1, -1, 3, 5, -1, -1, -1], "loss_changes": [24.70282, 0.0, 6.125244, 3.0433044, 0.0, 0.0, 0.0], "parents": [2147483647, 0, 0, 2, 2, 3, 3], "right_children": [2, -1, 4, 6, -1, -1, -1], "split_conditions": [7298.0, -0.10612245, 1.0, 41.0, -0.119368814, -0.14396124, -0.18272117], "split_indices": [10, 0, 7, 12, 0, 0, 0], "split_type": [0, 0, 0, 0, 0, 0, 0], "sum_hessian": [375.89005, 167.665, 208.22505, 165.00395, 43.221096, 61.81713, 103.18682], "tree_param": {"num_deleted": "0", "num_feature": "14", "num_nodes": "7", "size_leaf_vector": "1"}}, {"base_weights": [1.8954622, 2.3948708, 0.022435086, 2.5390146, -0.110694416, -0.08434542, 0.8714461, 0.6902421, 2.7223153, -0.053069122, 0.037189372, -0.06679681, 1.7301838, 0.17538998, -0.064870484, 0.037974603, 2.8424604, -0.0074637937, 2.4062543, 1.3052802, 2.9697907, 0.34374726, 0.035190653, 0.006128415, 0.21683848, 3.2246997, 1.8340063, 1.3763813, 0.33742136, -0.0033199254, 0.21333778, 0.19828333, -0.0016857072], "categories": [], "categories_nodes": [], "categories_segments": [], "categories_sizes": [], "default_left": [0, 0, 0, 0, 0, 0, 0, 0, 0, 0, 0, 0, 0, 0, 0, 0, 0, 0, 0, 0, 0, 0, 0, 0, 0, 0, 0, 0, 0, 0, 0, 0, 0], "id": 36, "left_children": [1, 3, 5, 7, 9, -1, 11, 13, 15, -1, -1, -1, 17, -1, -1, -1, 19, -1, 21, 23, 25, -1, -1, -1, -1, 27, 29, 31, -1, -1, -1, -1, -1], "loss_changes": [46.61554, 14.503647, 9.198031, 10.754272, 0.8257857, 0.0, 9.489918, 7.834876, 8.37085, 0.0, 0.0, 0.0, 5.457489, 0.0, 0.0, 0.0, 2.344818, 0.0, 5.5203705, 4.3934326, 2.3572845, 0.0, 0.0, 0.0, 0.0, 1.4393005, 4.2942047, 2.8524613, 0.0, 0.0, 0.0, 0.0, 0.0], "parents": [2147483647, 0, 0, 1, 1, 2, 2, 3, 3, 4, 4, 6, 6, 7, 7, 8, 8, 12, 12, 16, 16, 18, 18, 19, 19, 20, 20, 25, 25, 26, 26, 27, 27], "right_children": [2, 4, 6, 8, 10, -1, 12, 14, 16, -1, -1, -1, 18, -1, -1, -1, 20, -1, 22, 24, 26, -1, -1, -1, -1, 28, 30, 32, -1, -1, -1, -1, -1], "split_conditions": [3.0, 14.0, 30.0, 1.0, 10.0, -0.08434542, 10.0, 147653.0, 9.0, -0.053069122, 0.037189372, -0.06679681, 163595.0, 0.17538998, -0.064870484, 0.037974603, 38.0, -0.0074637937, 201861.0, 183473.0, 401.0, 0.34374726, 0.035190653, 0.006128415, 0.21683848, 30.0, 6849.0, 28.0, 0.33742136, -0.0033199254, 0.21333778, 0.19828333, -0.0016857072], "split_indices": [5, 6, 0, 5, 4, 0, 4, 2, 4, 0, 0, 0, 2, 0, 0, 0, 12, 0, 2, 2, 10, 0, 0, 0, 0, 0, 10, 0, 0, 0, 0, 0, 0], "split_type": [0, 0, 0, 0, 0, 0, 0, 0, 0, 0, 0, 0, 0, 0, 0, 0, 0, 0, 0, 0, 0, 0, 0, 0, 0, 0, 0, 0, 0, 0, 0, 0, 0], "sum_hessian": [48.892006, 38.380054, 10.511953, 36.27956, 2.1004937, 5.207487, 5.3044667, 3.7024307, 32.57713, 1.0697831, 1.0307105, 1.9789888, 3.3254778, 1.8906173, 1.8118136, 1.7922788, 30.78485, 1.1486553, 2.1768224, 3.2156339, 27.569216, 1.0010566, 1.175766, 1.7558806, 1.4597533, 21.013811, 6.5554047, 2.336406, 18.677404, 1.0286607, 5.526744, 1.3329941, 1.0034119], "tree_param": {"num_deleted": "0", "num_feature": "14", "num_nodes": "33", "size_leaf_vector": "1"}}, {"base_weights": [-0.9976713], "categories": [], "categories_nodes": [], "categories_segments": [], "categories_sizes": [], "default_left": [0], "id": 37, "left_children": [-1], "loss_changes": [0.0], "parents": [2147483647], "right_children": [-1], "split_conditions": [-0.09976713], "split_indices": [0], "split_type": [0], "sum_hessian": [36.79965], "tree_param": {"num_deleted": "0", "num_feature": "14", "num_nodes": "1", "size_leaf_vector": "1"}}, {"base_weights": [-0.8008726, -0.8467237, 0.6103251, -0.8619865, -0.06479151, -0.016615782, 0.13863538, -0.8853516, -0.27048427, 0.041415162, -0.05232243, -0.9099099, -0.3079835, -0.076993875, 0.079817586, -0.091903046, -0.015638076, 0.21979372, -0.07232203, 0.042676367, -0.008584885], "categories": [], "categories_nodes": [], "categories_segments": [], "categories_sizes": [], "default_left": [0, 0, 0, 0, 0, 0, 0, 0, 0, 0, 0, 0, 0, 0, 0, 0, 0, 0, 0, 0, 0], "id": 38, "left_children": [1, 3, 5, 7, 9, -1, -1, 11, 13, -1, -1, 15, 17, -1, -1, -1, -1, 19, -1, -1, -1], "loss_changes": [7.57563, 1.2101517, 2.6491482, 1.197403, 0.9000267, 0.0, 0.0, 1.1316757, 3.4917972, 0.0, 0.0, 0.50917816, 1.3805853, 0.0, 0.0, 0.0, 0.0, 0.24042295, 0.0, 0.0, 0.0], "parents": [2147483647, 0, 0, 1, 1, 2, 2, 3, 3, 4, 4, 7, 7, 8, 8, 11, 11, 12, 12, 17, 17], "right_children": [2, 4, 6, 8, 10, -1, -1, 12, 14, -1, -1, 16, 18, -1, -1, -1, -1, 20, -1, -1, -1], "split_conditions": [5178.0, 1887.0, 49.0, 14.0, 2051.0, -0.016615782, 0.13863538, 383306.0, 55.0, 0.041415162, -0.05232243, 74.0, 5.0, -0.076993875, 0.079817586, -0.091903046, -0.015638076, 39.0, -0.07232203, 0.042676367, -0.008584885], "split_indices": [10, 11, 12, 6, 11, 0, 0, 2, 12, 0, 0, 0, 6, 0, 0, 0, 0, 0, 0, 0, 0], "split_type": [0, 0, 0, 0, 0, 0, 0, 0, 0, 0, 0, 0, 0, 0, 0, 0, 0, 0, 0, 0, 0], "sum_hessian": [108.09316, 105.07905, 3.0141096, 102.96681, 2.1122355, 1.8994426, 1.1146672, 98.57615, 4.3906627, 1.0802487, 1.0319868, 94.00183, 4.5743184, 3.1827059, 1.2079568, 92.66066, 1.3411766, 2.2214608, 2.3528576, 1.0882527, 1.1332082], "tree_param": {"num_deleted": "0", "num_feature": "14", "num_nodes": "21", "size_leaf_vector": "1"}}, {"base_weights": [-1.3661705, -0.1067337, -1.6094671, -1.7056507, -0.11849179, -0.1419274, -0.18618207], "categories": [], "categories_nodes": [], "categories_segments": [], "categories_sizes": [], "default_left": [0, 0, 0, 0, 0, 0, 0], "id": 39, "left_children": [1, -1, 3, 5, -1, -1, -1], "loss_changes": [25.411621, 0.0, 6.2976074, 4.6838074, 0.0, 0.0, 0.0], "parents": [2147483647, 0, 0, 2, 2, 3, 3], "right_children": [2, -1, 4, 6, -1, -1, -1], "split_conditions": [7298.0, -0.1067337, 1.0, 43.0, -0.11849179, -0.1419274, -0.18618207], "split_indices": [10, 0, 7, 12, 0, 0, 0], "split_type": [0, 0, 0, 0, 0, 0, 0], "sum_hessian": [372.14352, 169.42776, 202.71576, 162.81233, 39.903427, 61.014683, 101.797646], "tree_param": {"num_deleted": "0", "num_feature": "14", "num_nodes": "7", "size_leaf_vector": "1"}}, {"base_weights": [2.185663, -0.07555795, 2.412642, 1.1963001, 2.7806633, 1.860897, -0.16176881, 0.07488432, 2.8358023, 2.082406, 0.0336077, -0.0685476, 0.05412028, 2.1358807, 3.1631548, 0.03938126, 2.3517277, 2.7617612, 1.1640598, 0.33344242, 0.14338838, 0.04707717, 0.26773736, 3.3789976, -0.0141714085, -0.026984548, 1.692056, 0.3784998, 0.08450139, 0.5431699, 0.23123519, 0.09221753, -0.008731858], "categories": [], "categories_nodes": [], "categories_segments": [], "categories_sizes": [], "default_left": [0, 0, 0, 0, 0, 0, 0, 0, 0, 0, 0, 0, 0, 0, 0, 0, 0, 0, 0, 0, 0, 0, 0, 0, 0, 0, 0, 0, 0, 0, 0, 0, 0], "id": 40, "left_children": [1, -1, 3, 5, 7, 9, 11, -1, 13, 15, -1, -1, -1, 17, 19, -1, 21, 23, 25, -1, -1, -1, -1, 27, -1, -1, 29, -1, -1, 31, -1, -1, -1], "loss_changes": [32.122513, 0.0, 15.64122, 10.768618, 1.4362946, 1.9572735, 2.1125886, 0.0, 0.2496643, 2.110199, 0.0, 0.0, 0.0, 4.584549, 0.7732239, 0.0, 2.1433868, 13.151115, 5.5683393, 0.0, 0.0, 0.0, 0.0, 2.8423462, 0.0, 0.0, 2.358736, 0.0, 0.0, 0.81780756, 0.0, 0.0, 0.0], "parents": [2147483647, 0, 0, 2, 2, 3, 3, 4, 4, 5, 5, 6, 6, 8, 8, 9, 9, 13, 13, 14, 14, 16, 16, 17, 17, 18, 18, 23, 23, 26, 26, 29, 29], "right_children": [2, -1, 4, 6, 8, 10, 12, -1, 14, 16, -1, -1, -1, 18, 20, -1, 22, 24, 26, -1, -1, -1, -1, 28, -1, -1, 30, -1, -1, 32, -1, -1, -1], "split_conditions": [25.0, -0.07555795, 10.0, 1.0, 19.0, 261422.0, 4.0, 0.07488432, 13.0, 9.0, 0.0336077, -0.0685476, 0.05412028, 5.0, 10520.0, 0.03938126, 128016.0, 239723.0, 10.0, 0.33344242, 0.14338838, 0.04707717, 0.26773736, 50.0, -0.0141714085, -0.026984548, 183473.0, 0.3784998, 0.08450139, 115336.0, 0.23123519, 0.09221753, -0.008731858], "split_indices": [0, 0, 4, 7, 13, 2, 7, 0, 4, 4, 0, 0, 0, 6, 10, 0, 2, 2, 6, 0, 0, 0, 0, 0, 0, 0, 2, 0, 0, 2, 0, 0, 0], "split_type": [0, 0, 0, 0, 0, 0, 0, 0, 0, 0, 0, 0, 0, 0, 0, 0, 0, 0, 0, 0, 0, 0, 0, 0, 0, 0, 0, 0, 0, 0, 0, 0, 0], "sum_hessian": [44.38581, 3.0130608, 41.372753, 10.597552, 30.7752, 6.8668685, 3.730684, 1.1983465, 29.576853, 5.676566, 1.1903026, 2.1522021, 1.5784819, 11.82283, 17.754023, 1.1195365, 4.5570297, 6.071055, 5.7517757, 15.30952, 2.4445019, 1.0334414, 3.5235882, 4.871639, 1.1994159, 1.679527, 4.0722485, 3.773367, 1.098272, 2.0854075, 1.9868411, 1.0135164, 1.071891], "tree_param": {"num_deleted": "0", "num_feature": "14", "num_nodes": "33", "size_leaf_vector": "1"}}]}, "name": "gbtree"}, "learner_model_param": {"base_score": "1.2008212E-1", "boost_from_average": "1", "num_class": "0", "num_feature": "14", "num_target": "1"}, "objective": {"name": "binary:logistic", "reg_loss_param": {"scale_pos_weight": "1"}}}, "version": [2, 1, 3]}